
#include <cmath>
#include <cstdint>
#include <complex.h>
#define restrict __restrict__

constexpr int dim = 165;
constexpr int global_size = 10000000;
constexpr int kernel_rank = 1;
constexpr int num_nodes = 4;
constexpr int batch_size = 1;
constexpr int num_coefficients = 2;


using scalar_type=double;
using geom_type=double;
using namespace std;
void kernel(double* restrict A,
                   const double* restrict w,
                   const double* restrict c,
                   const double* restrict coordinate_dofs,
                   const int* restrict entity_local_index,
                   const uint8_t* restrict quadrature_permutation)
 {
// Quadrature rules
static const double weights_530[214] = {5.094949946125654e-05, 5.094949946129215e-05, 5.094949946136376e-05, 8.091578025333847e-05, 8.09157802534108e-05, 8.091578025341743e-05, 9.003858468151016e-05, 9.003858468155147e-05, 9.003858468155359e-05, 0.0001109678843552184, 0.0001109678843552303, 0.0001109678843552313, 0.0001430112964229739, 0.0001430112964229811, 0.0001430112964229905, 0.0001435686140277277, 0.0001435686140277359, 0.0001435686140277852, 0.0001704761923121512, 0.0001704761923121783, 0.0001704761923122253, 0.0001779554638438953, 0.0001779554638439463, 0.0001779554638439862, 0.0001879125100800737, 0.0001879125100800832, 0.0001879125100801143, 0.0001885325435119032, 0.0001885325435119212, 0.0001885325435119355, 0.000203420107255822, 0.0002034201072558228, 0.0002034201072558512, 0.0002383120253812253, 0.000238312025381286, 0.0002383120253814651, 0.0002470249070942997, 0.0002470249070943653, 0.0002470249070943676, 0.0002584871901384717, 0.0002584871901385443, 0.0002584871901386187, 0.000265583230932468, 0.0002655832309324686, 0.0002655832309324773, 0.0002976874969180326, 0.0002976874969180593, 0.000297687496918183, 0.0002989438206765175, 0.0002989438206765232, 0.0002989438206765322, 0.0003205499531253637, 0.0003205499531254577, 0.0003205499531255287, 0.0003351988396668535, 0.0003351988396668999, 0.0003351988396669196, 0.000357511187619173, 0.000357511187619211, 0.0003575111876192303, 0.0003766593641388355, 0.000376659364138844, 0.0003766593641389825, 0.0004170560045706985, 0.00041705600457074, 0.0004170560045707549, 0.0004206908093603285, 0.0004206908093604563, 0.0004206908093605144, 0.0004403404439190608, 0.0004403404439191172, 0.0004403404439193527, 0.0004510176089945963, 0.0004510176089945988, 0.0004510176089946125, 0.0004809253606485377, 0.0004809253606485387, 0.0004809253606485603, 0.0004921683513968802, 0.000492168351396902, 0.0004921683513969398, 0.0004972651138408006, 0.0004972651138408805, 0.0004972651138410044, 0.0005046209614997817, 0.0005046209614998177, 0.0005046209614999028, 0.0005053606662589742, 0.0005053606662590495, 0.0005053606662590833, 0.000507488410074817, 0.000507488410074818, 0.0005074884100748625, 0.0005296283626829228, 0.0005296283626829545, 0.0005296283626830274, 0.0005961391122951584, 0.0005961391122951768, 0.0005961391122952683, 0.0006063199394915311, 0.0006063199394916362, 0.0006063199394917882, 0.0006305106887630419, 0.0006305106887630918, 0.0006305106887631449, 0.0006490437338464095, 0.00064904373384643, 0.0006490437338465401, 0.0006784672244327731, 0.0006784672244328733, 0.0006784672244328974, 0.0007018738744954993, 0.0007018738744955992, 0.0007018738744956027, 0.0007044998612670034, 0.0007044998612670082, 0.0007044998612670204, 0.0007123210856255668, 0.0007123210856256313, 0.0007123210856256491, 0.0007180840505148808, 0.0007180840505148981, 0.0007180840505149077, 0.0007320095837554124, 0.000732009583755433, 0.0007320095837555596, 0.0007487529433902918, 0.0007487529433903294, 0.0007487529433904035, 0.0007633124179686057, 0.0007633124179687115, 0.0007633124179687585, 0.0007665117920190594, 0.0007665117920191146, 0.0007665117920191253, 0.000782684926528277, 0.0007826849265283078, 0.0007826849265283831, 0.0008216462765614071, 0.0008216462765614102, 0.0008216462765614202, 0.0008401904995806664, 0.0008401904995807659, 0.0008401904995808739, 0.0008649691231126786, 0.0008649691231126842, 0.0008649691231126886, 0.0009771082729624124, 0.0009771082729625377, 0.0009771082729625865, 0.001003226140444279, 0.00100322614044429, 0.001003226140444467, 0.001110706878211719, 0.001110706878211801, 0.001110706878211849, 0.001154119441915939, 0.001154119441916334, 0.001154119441916485, 0.001188886978163969, 0.00118888697816402, 0.001188886978164118, 0.001203931508121596, 0.001203931508121767, 0.001203931508121786, 0.001267754810090683, 0.001267754810090709, 0.001267754810090819, 0.001307534671199023, 0.001307534671199086, 0.001307534671199105, 0.001338609979446834, 0.001338609979446902, 0.001338609979447063, 0.001345468976423033, 0.001345468976423137, 0.001345468976423147, 0.001398358195255936, 0.001398358195256014, 0.001398358195256101, 0.001511722175784935, 0.001536829401278278, 0.001536829401278592, 0.001536829401278612, 0.001568496765944744, 0.001637170507703253, 0.001637170507703327, 0.001637170507703355, 0.001668009864853008, 0.001668009864853015, 0.001668009864853452, 0.001680141518426507, 0.001680141518426509, 0.001680141518426587, 0.001691214800269857, 0.001691214800269887, 0.001691214800270214, 0.001809352442068473, 0.001809352442068503, 0.001809352442068565, 0.001827094348569595, 0.001827094348570183, 0.001827094348570742, 0.00187471677519959, 0.001889219065491048, 0.001889219065491452, 0.001889219065491548, 0.001909611708997142, 0.001909611708997398, 0.001909611708997718, 0.002049458570185687, 0.00204945857018569, 0.002049458570187277, 0.002407489553107553};
// Precomputed values of basis functions and precomputations
// FE* dimensions: [permutation][entities][points][dofs]
static const double FE0_C0_D001_Q530[1][1][214][165] = {{{{-0.1757903226360244, 0.2483718791712555, 0.1388773673207825, 3.958230250025442, -0.2893685175562147, 0.2969441952966808, -0.2308977713889334, 0.07655727856383636, 0.2344512475508295, -0.9115738151248187, 3.065644749671623, -0.5464737922126341, 0.6213377384162765, -0.591997929993304, 0.4324288293797921, -0.004072526609729922, -1.235577150916761, 9.127507285043341, -0.01011227115080631, -0.005499215906779138, -0.002335331734192015, -0.002065041324616459, -0.002512908546351859, -0.006974812766908618, -0.01439576537682279, 0.4318918337072491, -0.5893123820765184, 0.7458484851862512, -0.937043121343479, 1.202941181972694, -1.611470427138703, -4.641196944204771, 0.007044716205269742, 0.002942597161703483, 0.0002210567581732702, -0.002743838677292792, -0.0058773347189368, -0.03688603780516823, -0.08613615535573599, 0.02031504382730207, 0.008744913735314722, 0.0009342111445734054, -0.004162583889825458, -0.009347470238716299, -0.05641255509750284, -0.1290123224218849, 0.03007741880921755, 0.01414299184313644, 0.008121641839011385, 0.008359317654794479, 0.01611614880949811, 0.04000518288584693, -0.04600516241863591, -0.02145044451495253, -0.0154894390639975, -0.02144000432204452, -0.05350996444245049, 0.04711944707794446, 0.01951833192672246, 0.01500730471409117, 0.03659534030142614, -0.0008114514008022407, 0.03072258538922289, 0.05819238633348079, -0.2373334984352396, -0.3963994724251545, 1.904052790072863, -0.02323555744884418, -0.007098829844557803, 0.005095282559542856, 0.017837596109224, 0.08819569919087407, 0.2839294182179442, 0.04356696435234317, 0.004956720270658315, -0.0286837491377933, -0.1376792440962343, -0.5278363551272026, -0.06538790847564402, 0.019763702026307, 0.1821291149749805, 0.8362070371493603, 0.0757110169816525, -0.1953868932382393, -1.256200269174479, 0.05628758512190874, 1.89456299809768, -3.246167209946621, -0.06825933750951942, -0.0212984997191918, 0.006982374958363533, 0.02883320549369579, 0.1396288883419454, 0.4365586785140618, 0.1302114633367257, 0.02227137241593423, -0.04733589072816504, -0.2279338381633661, -0.8430741552898616, -0.2023284708342125, 0.02134412121790208, 0.3205262623825841, 1.40706212260124, 0.2545769609614706, -0.3702613331491276, -2.280398359036519, 0.06304081798836432, 3.906293333146275, -9.48514187969208, -0.0005598619987871708, -0.0001360670229054803, 0.000486569714132626, 0.0007748888385107422, 0.003684477234462614, 0.008488534433410267, -0.0001123015799059745, 0.0004284508419028564, 0.0005958379054945619, 0.002296945611351429, 0.005379344376949514, 0.0007159908581314461, 0.0007216602777030597, 0.001777355932607726, 0.003509515445035, 0.001191212426901957, 0.003013988220379829, 0.00375259459996033, 0.006004040209074846, 0.007774582268174452, 0.01432169420879029, 0.002269112338427803, -0.001263302962175375, -0.003779526398812354, -0.01372898423129829, -0.03993823471029737, -0.001811484111293233, -0.003449727356428759, -0.009365828876074924, -0.02505336664564358, -0.005484151402734782, -0.01103486040962622, -0.02068329430776551, -0.02129716665260958, -0.03253523082908927, -0.06532633394197455, -0.001443239117789947, 0.009697448800697721, 0.03328832838246176, 0.1091458140897144, 0.0127445430327767, 0.02893998203369469, 0.07588989573285365, 0.04827038828351526, 0.08868830806058679, 0.1700572649709192, -0.01560880571026267, -0.07200071196153408, -0.2565231538391927, -0.09314049320769563, -0.2233134248912602, -0.3735169762079286, 0.1657427144395844, 0.6230356081350675, 0.8088960275309585, -2.079919511219658},
  {-0.009753583717711761, 0.1412172381867841, 0.2592552518555946, 3.765966947739866, -0.5793436659138287, 0.677353655455511, -0.6781987630054759, 0.5593306445506344, -0.1840439412695214, -1.023230086974909, 10.75933805936296, -0.2943761847270651, 0.3024301686354977, -0.2359657470516203, 0.08037570469904874, 0.2328238957219884, -0.9122836463221103, 3.042322814163527, -0.01701989082849885, -0.008059333539991996, -0.002770068962707441, -0.002261551970532058, -0.002526615484924563, -0.005932395250414411, -0.01080469236660095, 0.02648253637049009, -0.03929282529959928, 0.05101422746221305, -0.06059263744061825, 0.05429431939244764, 0.05679304991004908, -5.602566544247584, -0.004705816668119612, -0.005040457097282078, -0.004276666266258869, -0.008023791083910754, -0.01295366414338388, -0.05717788200593844, -0.1220747729531212, -0.002069936825606599, -0.002609544752254966, -0.00239039597193148, -0.004881462396327596, -0.008240610240851013, -0.03871050094632675, -0.08524351495713953, 0.04738833285222181, 0.01845608410984718, 0.009297323116840006, 0.008967772238378083, 0.01559628160936912, 0.03280163631028473, -0.06370905282799209, -0.02465193608731074, -0.01769530689841779, -0.02458440153873903, -0.05215521411236461, 0.04456660103702779, 0.01867173740412697, 0.0250474163599584, 0.05853671171298112, 0.06561195556508777, 0.02656290963673784, -0.01898283941092072, -0.4613569276732119, -0.225662423431332, 2.233577401790892, 0.01997747449309647, 0.02033595046304277, 0.02786268398694702, 0.04649320334709252, 0.1506476292786057, 0.4178212250835704, -0.05066532785701951, -0.06389839249758002, -0.1018716641220877, -0.2686518531835104, -0.8197262616022162, 0.1250138471546869, 0.1878488999834355, 0.4338678035624027, 1.398752428726224, -0.3401762278697506, -0.6885594139857766, -2.342494438668074, 1.261030937370914, 4.249776227904781, -12.02687369825729, 0.008718812076160523, 0.01044161496130468, 0.01575580563539895, 0.02807779269970231, 0.09740196028814833, 0.2821028909053854, -0.02120869021400312, -0.03237121807821639, -0.05693302891450461, -0.1630889008100805, -0.5272383740141741, 0.04945648311405582, 0.09269494464206, 0.2408725446805282, 0.8415425967047462, -0.1248566918810286, -0.3307091420201406, -1.278261049046677, 0.4215117021670785, 1.963959234418858, -3.488062657496782, 0.001233573039457329, 0.001083929792413528, 0.001500548913619756, 0.002053196151959074, 0.007449024946326489, 0.01651770026849221, 0.000885781460606168, 0.001108980754412788, 0.0012396132534791, 0.003693294331959665, 0.008716247656104046, 0.0009443616866253233, 0.0009609687586649544, 0.002040417371687391, 0.003945763661042736, 0.001197217556836927, 0.002581663083316648, 0.003621643949650214, 0.003915621663306292, 0.005338142405954619, 0.008290811702765834, -0.006593662327225967, -0.007606233212011288, -0.0103381402299018, -0.02798323002357471, -0.07570127315924233, -0.005801720129091652, -0.006676936069148511, -0.01407559004005553, -0.03613614944015026, -0.00648527731288755, -0.01129896213764748, -0.0217279148962135, -0.01577154417527409, -0.02552987639751455, -0.03952196273671553, 0.02427664957013069, 0.03130491664532284, 0.06820616794301838, 0.1984707079127139, 0.02319396113438993, 0.03934614680086866, 0.09792137333952015, 0.04204251527983681, 0.07949741384821472, 0.1104630627957877, -0.08098871311528814, -0.1484744953816096, -0.440209630025939, -0.1072246247889267, -0.2458634060396136, -0.2676680991681666, 0.3367905189778742, 0.9676721913762268, 0.6849299620467492, -2.544935696990468},
  {1.11295025954086, 0.279317627378054, 0.2719151360697006, 3.072756209299531, -0.5985060931817671, 0.6810663867874529, -0.6508383070476309, 0.4808550274557879, -0.02714987574732838, -1.263488707854327, 8.816319950995188, -0.6240963496963988, 0.7294036269053203, -0.7304060026452949, 0.6033778292321998, -0.2058438518139606, -1.053513954400995, 10.47207395607781, -0.03183832163994157, -0.01597375464468618, -0.005683508100170065, -0.004948669866281933, -0.005787080461755057, -0.0171070804962737, -0.03521760866459973, -2.64354082906275, 3.43719734766078, -4.10373763491453, 4.79027499737263, -5.596840360943705, 6.644335744025007, -8.812654568816086, -0.1554175031818975, -0.08511788515673324, -0.03195761539449019, -0.02751050243254013, -0.02951019134039352, -0.06941808109225674, -0.1187700667745417, -0.1799390790878979, -0.09575427477545004, -0.03355568745706835, -0.02811562326630444, -0.02902585602143629, -0.0669439586425685, -0.1130606388350461, 0.09707379085537308, 0.04045599981568726, 0.02057075648958814, 0.02070749377523929, 0.04200384436190346, 0.1054130866590741, -0.156035654992641, -0.06342453399118987, -0.04319848429463747, -0.06355729005796541, -0.1638065606516783, 0.1800667924712325, 0.07114273674241303, 0.06781048380849197, 0.1753731792305334, -0.07699989687133364, 0.01274779534185778, -0.03320334078898599, -0.606542497457971, -0.746134148114197, 6.349625920146422, 0.5316316165044119, 0.2483160768416466, 0.1318867069483805, 0.1267624153443541, 0.2108207475398923, 0.411400370522965, -1.039813688749427, -0.4984503058637539, -0.3453429570092098, -0.4424744182267587, -0.8175909537812994, 1.76762523690351, 0.9285101668265333, 0.8651840314174556, 1.419769013714639, -2.940570224191415, -1.826044478903022, -2.431994643681137, 5.244800820063364, 4.553185211660156, -12.73248852116943, 0.615605743049934, 0.2750151446114976, 0.1371168980432931, 0.1275901827037165, 0.2056499881940562, 0.3947944715675293, -1.204904867037975, -0.5440956625106524, -0.3555735975358373, -0.4395602968540187, -0.7931553364311141, 2.050567951687382, 1.000266254668915, 0.8806156421613429, 1.398678790419138, -3.41827498926706, -1.940815075398055, -2.450731424175856, 6.121740231001013, 4.777810231293605, -15.02970264867195, 0.0322029864870744, 0.01761807395382923, 0.008460772819378492, 0.008099196645306365, 0.01314844542378122, 0.02141981819839021, 0.01819455739593065, 0.01015928612888391, 0.005810768046112275, 0.008255776169646409, 0.01242924199276803, 0.009344276166540455, 0.006186558842433076, 0.005303987253457992, 0.006928837468678434, 0.009115848146019538, 0.009005566000907735, 0.007061644795877862, 0.01538244855368175, 0.01408629283204427, 0.02537259454272588, -0.1532612415950961, -0.07733587604119199, -0.0489773921991148, -0.06300830466433173, -0.1041495421806494, -0.08109520742945593, -0.04529803500193725, -0.03967445721722145, -0.05817786993242918, -0.05435365280911428, -0.04195215790646507, -0.04174234804072372, -0.07213101756953356, -0.06353904490876892, -0.1223409334585689, 0.4259583087959539, 0.224403492875747, 0.1981495470992077, 0.3008662106566423, 0.2382817011556136, 0.1578221268717328, 0.1799321818779954, 0.2219849067112498, 0.1898858772369002, 0.3477547249917516, -1.022858397581347, -0.6284221017685702, -0.7603095377127637, -0.6756296651925463, -0.5627297697876197, -0.8601472863907316, 2.547572051148007, 2.071960914824234, 2.255740779977796, -8.351189864749616},
  {-1.386802448077055, -0.08763911129765464, -0.1689070595211455, -3.603075387714626, 0.1605661462048393, 0.1510112685432825, 0.06034529440005304, 0.1804439263580927, -0.5248237574615903, -0.4183899369166921, 3.441501210966151, 0.07276670303966157, 0.03831316352121518, 0.01604930934006131, 0.01310800992591801, 0.01436498953206198, 0.02957386484256954, 0.05151878178549942, 0.07104440682015836, -0.003349252073201788, -0.006691725827394133, -0.0009157140821446552, -0.0007002192493596134, -0.000310974690406025, 0.001688690937026637, 0.1089501568581336, 1.328376487604708, -0.3707600059525041, -1.554749891448318, 3.786048867438451, -5.769834455137959, 6.670137901910852, 4.181979155010701, -9.218657578249028, -14.99361419591878, 1.279418955383, -0.010508008147558, -0.2874804901065308, 0.3472409271280978, 0.07431064535477198, -0.03440015574485986, -0.05330615508877812, 0.07788344131904439, -0.03946475164976025, -0.03955783509089516, 0.1188796281145433, -0.09139478952793137, 0.02499170851001796, 0.01490429452149943, -0.007514442505558011, -0.00401622261279043, -0.00763125215572331, -0.04717968851073549, 0.01830470110496856, 0.007093035805504713, -0.006184538144853275, -0.003763830407063106, -0.02580843054851583, 0.01210980077534258, 0.006438254687340334, -0.006145729287256686, -0.024474749167408, 0.01561864514862284, 0.01119186818667004, -0.03814693562333098, 0.01900086445733773, -0.06620841251207836, -2.738738438600252, 23.68110954855113, 16.30535096418524, -4.215647884200054, 1.610638804837751, -0.6827917101666695, -5.463834779596922, -19.00597941267117, -4.900415184306344, 1.730374263129567, -0.481024236700858, 10.62516713361559, 14.01140004717411, 0.8600644769279485, -0.6614115470384649, -12.93806258921714, -8.542924023717143, 0.558179482897566, 12.40248994336356, 3.6166115309407, -9.095616652448824, -0.1103431816728598, -0.0137643417295585, 0.1405594596644426, -0.2203975569780808, 0.2371602736049595, -0.185902832359831, -0.01537734202346963, 0.1095860443482708, -0.1334946663098565, 0.1227127861440151, -0.08801845816982007, 0.113820287080995, -0.121878165635768, 0.0882415908096425, -0.05000705484445328, -0.1686007233753701, 0.1053813230570696, -0.04716417216638442, 0.1750418373502343, -0.0715447285217352, -0.1339018863176901, -0.117393080985349, 0.4156531065762294, -0.3221075819443228, 0.1234728406473733, 0.05043291798628866, -0.1263203863597723, -1.405664934875136, 0.6318649468786338, -0.2148637720072574, 0.02189817331270238, 0.02362980553541262, -0.6713227607778033, 0.1447709862291087, -0.02507628092095204, 0.007823119375085933, 0.1147932391138049, -0.03709067486278367, 0.009198071072422868, -0.0175758015097361, 0.004322770045024777, 0.000956404160468316, 0.6583803727540452, -0.8920776809208008, 0.8131151599896252, -0.5910594897686562, 0.3219215274884147, 2.183390056790087, -1.102660989444103, 0.5159769457874707, -0.177324127936737, 0.5171949763482979, -0.08214920695153977, -0.01537114576349865, -0.1495580361208786, 0.04025565228112556, 0.03453634074983977, -0.7639550558353427, 0.5245530701543505, -0.3217480432046924, 0.1592090952303622, -0.9465986836506507, 0.3455927765563659, -0.1078418098783723, -0.07460941763592251, -0.003795728418275936, 0.03573156959268565, 0.6471811020802654, -0.2947779120689753, 0.1131022968219166, 0.4139994183332711, -0.09822547730281087, -0.01114558939156796, -0.4501358577075401, 0.1367210773870976, -0.1369951655615134, 0.2379516685264843},
  {-0.4058434233721141, -0.492201077898575, -0.05443995682300315, -3.527042116082748, 0.07183482047699372, 0.03784647463505369, 0.01582363209934071, 0.01292189509348288, 0.01414581269582486, 0.02913400860885284, 0.05066469903973964, -0.04229611057139822, 1.351983562422242, -0.2275024487168453, -1.755846654717231, 3.945209630032292, -5.821314299983764, 6.601176557395772, 0.01520879861867135, -0.02237209277895924, 0.006800988294494559, -0.01000323549497888, 0.03218104491092616, -0.06456295688518317, 0.09008858755204564, 0.1697828452065537, 0.1501505062230735, 0.05439804635586931, 0.1478260246054684, -0.5118574542810794, -0.3348146442044415, 3.285551053674995, 0.005244917047837313, -0.0008481270322052573, -0.003304042172211032, -0.01510048563508013, -0.0008158832703956176, 0.03362977196489251, 0.001969850456848987, 0.9548106304965379, -1.192301078677369, 1.312713283268636, -0.8968500017248709, -18.35926203873608, -2.908301826316069, 1.659405115414184, -0.1137886140912639, -0.02504150453799836, 0.1524445766221934, -0.2279627695735808, 0.2397239724294847, -0.1852153086267453, -0.02616744215874386, 0.1179807912029157, -0.1377286969508973, 0.1238643804285326, -0.08766122450317447, 0.1247693775404352, -0.1259797933617348, 0.08912238163039633, -0.04976977329837534, -0.1753894747914441, 0.1064532276391653, -0.04692796582501225, 0.1772478552300957, -0.07118800412602333, -0.1332146231705556, -0.007420899129590452, -0.003703769635779046, -0.006351221934098201, 0.01499701802744489, 0.02231935208225295, -0.08833215108938118, -0.003465938341220862, -0.005233054700043992, 0.007393518252615623, 0.0166169723997967, -0.04564392779652407, -0.005065947337135081, 0.006723613314687404, 0.01086856195901474, -0.02487332289174744, 0.01128490034065043, 0.0140192391157359, -0.02355690993337814, 0.01658299768866362, -0.03670404617886851, -0.06344480174119559, -0.7077297949652829, 1.650198553730226, -4.162461072549188, 14.67338356990564, 24.8833561925344, -2.221220417205813, -0.4698203206157968, 1.587572249809581, -4.022611277179262, -18.87229877416436, -6.223393450452282, -0.5653223094390204, 0.4697760373231605, 13.43544095243299, 11.07576873525428, 0.6540280318893438, -7.967715446243984, -12.99459863004312, 3.271387046990467, 12.17047028678149, -8.780975476343729, -0.00844677632852335, -0.002990471754601692, 0.1380176907586965, -1.308686682293647, -0.9354481148378938, 0.08106494558188299, 0.0094951214367922, -0.09771040501945114, 0.5089779606584574, 0.68470020938722, 0.09817438264779775, 0.05054519596339171, -0.1909525185295124, -0.4593489008718047, -0.1253822139622006, 0.04890153690558287, 0.2711023425564699, 0.09471164192758422, -0.1278630268893768, -0.04850212134518314, 0.01153104869383101, 0.0332265593757753, -0.1374255473713806, 0.4328040294331106, 2.177602990212819, 0.7434631174926474, 0.03529105855287402, -0.05636119074469133, -1.067876782809706, -0.9271317522942616, -0.02084843147701082, 0.489005971040811, 0.8190052272682089, -0.1646675742689709, -0.5841521992530049, 0.3140258684428237, 0.03100894680971703, -0.05003901287860781, -0.913565642784342, -0.7967812486362832, -0.008551095061085316, 0.3269028228097866, 0.5283423875098945, -0.1001383188490895, -0.3178163760963861, 0.1552874325750938, -0.01624904693563514, 0.3889797449061186, 0.6523249644774077, -0.09074318745436309, -0.2909062590232535, 0.1100364779927136, -0.125432187142623, -0.4436537183214552, 0.1329570706514293, 0.2307452183198716},
  {4.684631494394941, -0.001600712157250762, -0.002393258855278868, -3.396592687720661, -0.08140002301629172, 1.405825810957795, -0.2429870354081383, -1.730486700275945, 3.864827424063607, -5.663261513671541, 6.38358971716965, 0.1563001474884273, 0.1517433560727957, 0.06197490676445945, 0.1822767156047079, -0.5084303627849192, -0.4097083422504484, 3.272404017005618, 0.003394135055701129, -0.009296912643993507, 0.01647278791635462, -0.0366949014790949, -0.07208320286219162, -0.09613086990727852, -0.004815383062435429, -0.09609822226547912, -0.05501228524358755, -0.0264085735274752, -0.02330661805060279, -0.02756337571927036, -0.06093775070876889, -0.110428087857275, -8.680338222602062, 7.520713130918585, -4.953932732182367, 2.070901832561017, 0.4073262592228003, -1.632845856572992, 0.06564069080104666, -4.430602055708817, 0.5113536079642025, 0.6727551695037421, -0.2231800312557416, -0.07051359955680812, -0.1688798548330664, -0.1577175058289561, -0.6855346031190117, 1.656040797627227, -4.510209340673831, 18.02415613262234, 27.27722014667938, -2.431573205484208, -0.4915238067466264, 1.819611016330802, -5.248660806092054, -20.50426672049281, -6.460381455462188, -0.682348576754086, 0.9186620284028131, 14.49136875238428, 11.35797431671886, 0.5388649370772091, -8.576091049026086, -13.19137908595513, 3.554437799793096, 12.25555592164612, -8.785812724281969, 0.2502648401132562, -0.3281284887548836, 0.3173033175024113, -0.2164445679224447, 0.03497475798405551, 0.1860684332464844, 0.1329654335224923, -0.1949899974752739, 0.2239521193675264, -0.1979594225759795, 0.03405988323581213, 0.08564348341442933, -0.158057384672983, 0.2319034124201367, -0.2347642284216102, 0.08759640292927527, -0.2068274270235022, 0.3525125048574285, 0.1441784910258027, -0.3701989453964366, 0.2853960616908278, 0.1224001052976392, -0.03428899523175446, -0.02068217830246822, 0.01101508617522639, 0.006167291474398081, 0.01217272957870837, 0.0702042828884436, -0.02796756516755893, -0.01164703289855, 0.01053545717169368, 0.006333834667783613, 0.0439597353212047, -0.02110888231616192, -0.01209312946628489, 0.01193357018177901, 0.0448745746359237, -0.02977887102226503, -0.02318467457516219, 0.07632805248669777, -0.0383001558380393, 0.1393595900628954, 11.70614247538713, -4.546010271990835, -0.7393740343781049, 0.8084784230599691, 0.5437491378633462, 0.6981339724702262, -15.94459258432348, 10.73010982310006, -0.981904687376613, -2.036688086601592, -1.671022717674042, 16.59946974179717, -17.45298216010886, 5.737409391444968, 4.513990526022693, -13.60004878207248, 23.18487737041186, -17.62817088950198, 7.043191137870382, -26.70273639116358, 2.603695564253379, -0.4401711013611379, 0.2484815657167121, 0.02160775497785757, -0.0618219281483975, -0.05489827583268438, 0.8320096931827657, -0.7470949610382619, 0.1259864204165727, 0.2433937346609327, -1.192035597414767, 1.67751709235607, -0.8416351365204628, 1.392487437788441, -3.627169239865995, -1.169439691969561, -0.2500268928967144, 0.1747241519845639, 0.007722588315293131, -0.0648481376700201, 0.5330408740464054, -0.5978731670686426, 0.1309664015400574, -0.9259936537687996, 1.782169149636613, 1.479271094454452, -0.2002383112287466, 0.1812297189037805, 0.02448028470324847, 0.5514325363927722, -0.8156199297127165, -1.30427792612562, -0.2653267431784849, 0.2755649497152357, 0.9271836823054976, -0.4967919006276214},
  {2.512092604459567, -1.447570906810466, 0.08976125222908185, 0.2462626746354236, 0.08646080269201281, -0.01012308269165582, -0.0357790687892869, -0.01860278193934351, -0.01936293360265433, -0.03034580409069451, -0.04603930903406191, 5.349440059823963, 16.20765186084461, -4.679383340215966, 2.507984460474191, -1.57573345420291, 1.04315921076319, -0.6660919192046443, -0.6286010721797372, -0.008498002042874698, -0.04808850863860066, 0.1168406341452674, -0.1669825135707947, 0.1927753559938534, -0.1854207219294882, -1.003886971182306, -0.3294046530006356, 0.01195485262527536, 0.006115753634485311, 0.0285013707581189, 0.04922671979293287, 0.08633824350861632, -0.2462994152471234, -0.1333208181500716, -0.05206767668141268, -0.0429606884934954, -0.04560632533767683, -0.09661908059933798, -0.1611056393775419, -5.608096533299619, 6.628269628658018, -6.967010600513979, 6.820855587360841, -6.094289478096257, 4.327603295393481, 0.278469262812776, 6.816584683808325, -2.858580058848362, 1.632106156043529, -0.9864381844404664, 0.58021640857353, -0.2955287779635986, 7.911459899882848, -2.427959961196799, 0.9749798283772451, -0.3882150348428892, 0.1180513517769649, -2.297900671832989, 0.8111204327486283, -0.3362948187864393, 0.134809495426684, 0.939549556735819, -0.2982378215917734, 0.08932846966967924, -0.428037116768068, 0.115805561861975, 0.1784365113943083, 0.1278234747309913, 0.0706821331212794, 0.03646711884954148, 0.03461598968896386, 0.05416607745010894, 0.08689738715962597, 0.03800067878600259, 0.01770191761312125, 0.01127047398987177, 0.01434915310495518, 0.02606477962913625, -0.002789350590687686, -0.001974035880764725, -0.001823323554444831, -0.002448542020980908, -0.001485231841040922, -0.002679293828638873, -0.001435585411180905, -0.008374272592968536, -0.007701075320120727, -0.01135813308464556, 3.204602557501977, -5.711262365862565, 8.589858045551079, -12.09783910042476, 16.79482732898565, -25.42752035865593, 0.5921829147729175, -0.5737425600443378, 0.1402792890611484, 1.204898871156158, -5.544739968560568, -0.06709801889015723, 0.2473293588012314, -0.767224171267991, 2.315963781274654, -0.08478853260032707, 0.3600719270293106, -1.181579175331831, -0.1703699997898902, 0.6342903285879754, -0.3017316700910823, 0.7830703126694422, -1.380970808918666, 2.042102967975873, -2.78959038935509, 3.632655084620997, -4.438758805884849, 0.3666301123110246, -0.6709907886900323, 1.093805979222331, -1.744977882835459, 2.965269014204015, 0.1977730467839053, -0.464554159563779, 0.9791087502178266, -2.088590005393136, 0.1846398154052595, -0.555581112820845, 1.451343858515718, 0.2831872659297783, -0.9462184108720896, 0.5224786351769265, -0.5632706144574838, 1.402202146004794, -2.915151342892115, 5.879058571269557, -13.63795959097709, -0.2904566305503054, 0.769715324304829, -1.852994893129037, 4.83947750872716, -0.195681639837758, 0.6879346453032028, -2.20634008682725, -0.2402730187494622, 1.009866611872257, -0.391796734407156, -0.09801328490769082, 0.1301239427834425, -0.005633333625217349, -0.8715469909997831, -0.04777052443435811, 0.06908083264538259, 0.01382282246364307, -0.0420547376253704, 0.09147063509531611, -0.06822628643458745, 0.01707160779477586, -0.09324417444573746, 0.4328902076860205, 0.01514677677274671, -0.08436755667977316, 0.01489891453648401, 0.02977456262391833, -0.1680242793173636, 0.02746192661833178, 0.06086914218454852},
  {1.502595194219255, -0.2133663448446513, -0.05281958360049266, 0.2552507229456725, 0.05210625288142349, 0.006245029668009894, -0.008644112259166226, -0.00387109006236752, -0.004045646778032931, -0.00503277771070788, -0.0071179219880794, 0.1933733808541613, 0.0237329975647149, -0.03307694447046649, -0.01572676960739468, -0.01728023344229529, -0.02600665357771849, -0.04086213206984281, 0.002876599697654345, 0.001566979342033984, 0.0007301547638656345, 0.0006430116640889414, 0.0007950094853613547, 0.001962681117630509, 0.004018912302806583, -7.485671953169603, 8.221900794820852, -2.50827898806767, 1.593401675560416, -1.163161161751891, 0.8800893826576239, -0.6311953395270966, -0.3267261196988758, 0.2789457126879998, -0.1605880566157827, 0.05831805151113651, 0.01959612467983496, -0.07275296464873982, 0.09578194924614503, -2.218838309243525, 1.202729791233579, -0.5424890048765793, 0.1030171346291412, 0.1852493175226489, -0.3576971592149582, 0.4099260793520642, -0.00398697431196753, -0.002405311849055475, -0.001539625571902987, -0.001639517244046385, -0.003191000221871825, -0.006113475272890879, -7.697805040049024e-05, 0.0002320210297624941, 0.0001509675672504667, 0.0003034240767229339, -9.270796734023979e-05, 0.001053905705044777, 0.0008244188651482208, 0.0009697611214923048, 0.001502001617578018, 0.0006216495029776871, 0.0007797539191753986, 0.0008347051199637604, 0.001020662817629944, 0.001165283729239372, 0.001309669800302345, -0.373260288570479, -0.1532326391720416, 0.2865924971644845, -0.2911561268387607, 0.2374602377990813, -0.1523170576902762, 0.8895416026225705, -0.4152217557148792, 0.1977196141776155, -0.0789007497416198, 0.01590854432719193, -0.2655182972531489, 0.135485687741132, -0.06816147476115847, 0.03015191478924195, 0.1168076777872631, -0.04998548189722539, 0.01802229750454588, -0.05747359329479799, 0.01953910115241296, 0.02588232368548272, -2.272045330215054, -0.8778526816892045, 1.325443964157079, -1.226874040709946, 0.9435657845300504, -0.580882645024816, 5.578292476884336, -2.003597028322262, 0.8511803280697968, -0.3171856656538817, 0.06033089028050067, -1.593698039932738, 0.6447036810904525, -0.2899743393537195, 0.120663257071683, 0.6875096408458462, -0.2400151428724334, 0.07682666517601514, -0.3342803237509016, 0.09590471871379565, 0.1496414970913896, -0.2853509062235389, 0.07537517307783241, -0.01920283242609162, -0.001574652719067745, 0.00797182649696278, -0.007282533075479158, 0.1055983039800784, -0.01859163557545868, 8.770798061897455e-05, 0.003979137290997915, -0.003532565322953494, -0.03512675718573307, 0.001309085464286575, 0.003039607433673297, -0.002200916906191546, 0.003686810046171099, 0.003819140029881043, -0.002280641747121722, 0.008364322297869677, -0.00399242036839472, -0.00942864373231328, 0.06606593052503168, -0.09058878399631955, 0.06350439431032959, -0.03641356898796794, 0.0163588918850043, -0.1099252437183188, 0.05094417338511198, -0.02402598400477629, 0.009639608031380925, 0.08479314183213502, -0.02686587675521735, 0.007995015733960345, -0.0517963204882852, 0.01176868669737195, 0.02430290526277438, 0.2746867479739867, -0.07021334546103353, 0.01910593933381901, -0.003719301313052213, -0.08617745430096363, 0.01839780940121732, -0.0032835668281773, 0.02607947561986423, -0.003841477748823509, -0.005378893416492728, -0.07518706582703429, 0.02043677243536418, -0.005450711820519399, 0.02474007211279706, -0.005377641404842913, -0.007391419644274542, 0.02368061974536396, -0.005068786936713868, -0.005972935268527693, -0.007356422947813702},
  {0.3597413796717555, 0.01587633869047811, -1.251627336700067, 0.2363358451000641, 5.861167619069374, 16.39094296207758, -4.610518907966552, 2.441801660117674, -1.522255371307721, 1.003478094134373, -0.6388242713999688, 0.02914680652155108, -0.001008780179277477, -0.009453492292982918, -0.004542307630825304, -0.004525860251812538, -0.005747895406026466, -0.007800741303195967, -0.0318351480557524, 0.03162022553422007, -0.02570167910687672, 0.01651285943853115, -0.006569961161139668, 0.005031137380950698, -0.08479654815020096, -0.06359619221694539, -0.05665046457430408, -0.02623342761585518, -0.01018934552561644, -0.003558013419190707, 0.01606530809506955, 0.04556974817523321, -0.8863006200441422, 1.209979329895679, -1.519145820193472, 1.858513708438156, -2.246881666722114, 2.637893179685553, -1.317847026909998, -0.007964969910901431, -0.005510890737053944, -0.003154230279420984, -0.003941269105413272, -0.005721640618879295, -0.02075732976333367, -0.0438318445323762, -0.09543850830274436, 0.1766222072584099, -0.2786305096979875, 0.4175111975009845, -0.6314442817596223, 1.085483737672203, 0.02798133193604375, -0.09379215717731337, 0.224684807356012, -0.5009497818615704, 1.257814393473088, 0.03384501720611922, -0.07904455644403807, 0.168592027937357, -0.3757387653185157, 0.02085368193048914, -0.06107033433520626, 0.1557506577360544, 0.02314313059570127, -0.07162353707178883, 0.03004313832806114, 0.2577617068264958, -0.6088195963297122, 1.249901531288745, -2.529466159657859, 5.659780777715987, -21.90880606625042, 0.1979460363419044, -0.4238017931632482, 0.7636452765998656, -1.175738418396552, 0.2273807063004704, 0.08512667112673264, -0.1657346588245011, 0.1837961033785154, 0.568209112584212, 0.0316933649583483, -0.001409910838182499, -0.4434120067234661, -0.02689815508718307, 0.2846343705242012, -0.1518960180704526, 0.002521900344316459, 0.002050033784948589, 0.00207853690676307, 0.002753115102236505, 0.008561475894289875, 0.0188798101763175, 0.001816031687217459, 0.001427603238572436, 0.001349935398729335, 0.002875029895120877, 0.006926441572475906, 0.0007581758179370328, 0.0005868788265006118, 0.000609745867826977, 0.000879740590130069, 0.0004181218043380824, 0.0003374513652362809, 0.0005216216355251189, -5.282343375429362e-05, -0.0002595092452144745, -0.000612623604941923, 0.02829072045979714, 0.0181404588882758, 0.01519480870113755, 0.02041005138746818, 0.05264755267111498, 0.1384189639112726, -0.05742939215513427, -0.04153335899676951, -0.04485264055092537, -0.08921710261192313, -0.2422787322462817, 0.1015789898487858, 0.08753473958993502, 0.1352321777461239, 0.3550819701920087, -0.1750163037415053, -0.2003555173716044, -0.4804324303441742, 0.3206872095790094, 0.6204664534916434, -0.7743471764415318, -0.01353952689771133, -0.01194669857560791, -0.01385817758497284, -0.03167582920758079, -0.08245694463419222, 0.04381293154084514, 0.04377987456670935, 0.0761675535787527, 0.202767132617184, -0.1239658950394957, -0.1651994553936356, -0.4148912588853495, 0.3812149471270016, 0.8178470438811787, -1.820367894862167, -0.008487874981572892, -0.006969946174909951, -0.00968164323303744, -0.02221113443204739, 0.02465708201220154, 0.02431516431266196, 0.04527918124107925, -0.06056441628932347, -0.07821960902193388, 0.1219699862801218, -0.003682122310208349, -0.003046831665736295, -0.003906476916502635, 0.009366737120670343, 0.008080124969689658, -0.005934766896836414, -0.001238580088796362, -0.0007654751501929744, -0.003556833289683669, 0.002592576441610841},
  {-0.02553806758407619, -0.004013652702127723, 0.1875902926516059, -0.2392488422261957, 15.56099126449732, -5.047468817834207, 2.912078989856394, -1.918663589584566, 1.339088492627373, -0.9456085529750032, 0.6300199777724766, 0.09930174165739732, 0.05222396760085674, 0.01671294174818467, 0.01302144905420981, 0.01184301127165295, 0.02514830985630787, 0.03932541617972229, 0.008850066100666866, -0.01012455485749425, 0.009915926930376625, -0.008078726566821919, 0.003767248216017609, 0.004117125561763303, 0.05205024926496044, 0.0915020452047091, 0.04466778409702521, 0.01149417581678345, 0.005062312603699742, -0.0001126251229822604, -0.02115783172643537, -0.05488480702800057, 0.007648397665882535, 0.1004904016403484, -0.3081049803100837, 0.687840128518916, -1.449306484145978, 3.359904220741943, -16.23391223875237, -0.008926395119539217, -0.008472769999506724, -0.005632043113696457, -0.008433530825187822, -0.0124779966025234, -0.04785228103223538, -0.09672553648005586, -0.349289040279265, 0.7104580740341103, -1.27200965183606, 2.272305470184731, -4.517713460437677, 13.56868403910896, -0.1517919040200993, 0.3072750510778433, -0.586048906108483, 1.208969093538642, -3.354042734241, -0.06876721928094415, 0.1814814450945992, -0.465848557037589, 1.39821539948109, -0.058292485079121, 0.2033564566242544, -0.6787756209938406, -0.084597329242523, 0.3367445143146953, -0.1500267033569945, -0.310092480923034, 0.5986275001688479, -0.992097248081113, 1.569234961773074, -2.443623605071805, 2.434597895587756, -0.119872302042927, 0.2110514605994641, -0.3194125734224459, 0.3617851088719138, 0.6440641013384765, -0.03688396197847658, 0.06676801311396728, -0.02138809463249442, -0.6693691073562588, -0.01190923680003833, -0.04361685169590407, 0.4973279736081049, 0.04392598404008927, -0.3275663490278012, 0.1792310132846431, -0.01273059818710798, -0.007128554654303399, -0.003269063354947391, -0.002879494709587012, -0.00294053563020667, -0.00303407751672027, -0.006191967313241547, -0.003098247951430537, -0.001639570687231162, -0.001203772402852656, -0.0007251933170051967, -0.001637072475930566, -0.0008882919492258232, 1.890023692382035e-05, 0.0008048105044866811, -0.0008217818155278909, 0.0005884244015218355, 0.00123167256117401, 0.00224996217417773, 0.003530725742731812, 0.006794789107436951, 0.04577129357177838, 0.03589829979644646, 0.03441396912318737, 0.04915085571721788, 0.1341127831524307, 0.3406178510061821, -0.1326155470315543, -0.1082208397507347, -0.124083923307034, -0.261566328696743, -0.694563094639446, 0.3356059691633232, 0.2999333111419373, 0.4809690478162655, 1.247951671351457, -0.8506100441959018, -0.9521711777039688, -2.241558371354141, 2.53143779635848, 4.497268397996527, -13.76796853754249, 0.05953946240537714, 0.0298949131116697, 0.01774720858025448, 0.01613436489444473, 0.0148079833862205, -0.1581091731937755, -0.08092564941907127, -0.05533687086864423, -0.04273523531924132, 0.3517003747831597, 0.1837366559422204, 0.1074579399048773, -0.7247334742522252, -0.285766102493624, 1.037831942133849, 0.02341139293014203, 0.01155540780826163, 0.005842778044940487, 0.001144671944600541, -0.05577830835938424, -0.02268312464763886, 0.001773696785395548, 0.09057018188507517, -0.02046987607880755, 0.1250423203416711, 0.00735929926878554, 0.0006524314571910763, -0.005355949503793654, -0.004694778756856364, 0.02728585665186879, -0.1289015240530695, -0.004275388422045385, -0.01279089440272348, 0.07132561249105536, -0.03004233516355042},
  {-0.06810240757078426, 0.2228444037084392, -0.004656920105441958, -0.2398813411090586, 0.09915289160050937, 0.0520653722327096, 0.01661801547528559, 0.01288891335168949, 0.01166644030129679, 0.02451779622978584, 0.03813349742325525, 15.5685552617504, -5.046995249537658, 2.912615747967126, -1.919854969631364, 1.340588278952713, -0.9471682925522542, 0.6314017354970456, 0.05961994224959077, 0.004561593482109514, 0.004300843850297874, -0.009275347751023405, 0.0114304574411409, -0.01170498896732908, 0.01025327277001502, 0.09565212721981793, 0.04710266385445743, 0.01250756140084124, 0.005898114769820541, 0.0007545864663076961, -0.01980220566225309, -0.05326684734415786, -0.003827523610108977, -0.005593676043330659, -0.004528290743991609, -0.00758709089535642, -0.0116755132015104, -0.0469504222985863, -0.09614013752927897, 0.1111893135937709, -0.038822804217882, -0.134797277462553, 0.4754675838820533, -1.187158858769763, 3.036397039229382, -16.36633993865031, 13.08331819811346, -4.435081946948403, 2.246169902472241, -1.262396767158899, 0.7070154635916481, -0.3482752750387739, -3.241179217618363, 1.186076566941265, -0.579073256419344, 0.304864839660048, -0.1510423415468108, 1.352689937231631, -0.4564989643149523, 0.1791577642176905, -0.06815250295004426, -0.6572049524770891, 0.1990158537130107, -0.05750066155708708, 0.3262489144028246, -0.0826447435396185, -0.1454304930311319, -0.01295337815840468, -0.00731889890120618, -0.003424770844761562, -0.003053640890901306, -0.003267112470722957, -0.003567093335378917, -0.006377433819448271, -0.003254233185342629, -0.001764730873254865, -0.001397615952336669, -0.001022328748134376, -0.001786941896039196, -0.001011359291023973, -0.0001020250517308157, 0.0006535431852196456, -0.0009912252147661657, 0.0003980096097947193, 0.001081663988112307, 0.001931834782054459, 0.003241380119088266, 0.00627667673099621, -0.3249546592417434, 0.6295386382268621, -1.048681400472099, 1.672156193085307, -2.646179394296609, 2.891199722973138, -0.1274544534962397, 0.2271908102910581, -0.3511390799755414, 0.4245969814187415, 0.5287659101019735, -0.04110118470584207, 0.07800278430255865, -0.04758795490763059, -0.6192915971373172, -0.01581500343624375, -0.03182191785447348, 0.4720175412526463, 0.03905220709143934, -0.3145291895117474, 0.1732225247229906, 0.02762121977481517, -0.09514732519735639, 0.2677155582202763, -0.7289117455267069, 2.298473001415453, -13.31134197465962, 0.02714610494423786, -0.0901254443586773, 0.2656171628986931, -0.8887182988442733, 4.412329330022392, 0.02997355351955567, -0.1126969607636086, 0.4567842575162214, -2.210842393742668, 0.04535868314948434, -0.2515269259493744, 1.234540577781415, 0.1303688365335197, -0.6885277619101777, 0.3381598713064501, 0.06077224223440892, -0.1622368675230561, 0.3638344809931618, -0.7626011973350166, 1.188193136530165, 0.03095286827939154, -0.08466146969213457, 0.1962536450127924, -0.3313946718757256, 0.01874249979076519, -0.05981913510151141, 0.1253755283817384, 0.01763246664203931, -0.05003662268833258, 0.01738404909111839, 0.02444076335151852, -0.05942239129750171, 0.1028356340683937, 0.08023019912243913, 0.01239256743115833, -0.02602093675865171, -0.008263217509892874, 0.006754342515839328, -0.002300830389077651, 0.002494919066761775, 0.008324572540035395, -0.009068757896226395, -0.1114056051549908, 0.001552773775952759, 0.02326443573928438, -0.004450338022814742, -0.002813942670906695, 0.0642134260227699, -0.01146831827287324, -0.02753704153311967},
  {-5.026882358654642, -0.2378709956231912, -0.2413134696698942, -0.4500385378824604, 0.116426078734358, 0.06111722102526761, 0.02018930159786711, 0.01601936774284956, 0.01539014795193224, 0.03467087868899441, 0.05827946555532186, 0.1159232423023005, 0.06076282951902206, 0.0200177697398493, 0.01581504045063806, 0.01512457330130857, 0.03372977749971648, 0.05639831263821727, 0.02177991418650828, 0.01101735822365174, 0.004098703052542194, 0.003500788632411569, 0.004085919339184477, 0.01089796360429601, 0.02143099505415882, 9.190215880329662, -3.769069851038472, 2.75192077402522, -2.186843546484338, 1.786508619494804, -1.446718938620958, 1.085733801632565, -8.247206647951435, 1.306010713251605, -0.04552819978140887, -0.3971734507108852, 0.564880054699445, -0.599565867790096, 0.529882028238074, -7.943006717235563, 1.312373209773634, -0.06688398786969928, -0.3772223443977515, 0.5485330922672789, -0.5869571417578576, 0.5210470302396538, -0.01744157073079066, -0.01018547869287443, -0.00559428525663798, -0.005577007523859056, -0.01000161385740972, -0.01700499722628512, -0.009365375280720437, -0.005592642612042748, -0.003623366348254377, -0.005520204893458286, -0.009147375750488693, -0.004204975248129971, -0.002988508095749183, -0.002960881150479057, -0.004127076502058973, -0.003857050587148917, -0.004088893660560279, -0.003797142069849182, -0.005912698746354137, -0.005879818054470686, -0.009531170460647496, 10.49427630572238, -4.097948362533646, 2.265447629799529, -1.34882485434783, 0.787441669202161, -0.4000311939617733, -2.863010642212319, 1.171018127218126, -0.6166236863297685, 0.34058070913016, -0.1741154339365388, 1.366354222058127, -0.494475874187605, 0.2050422756498173, -0.0808693646652465, -0.7517690379844482, 0.2366810322306453, -0.07048836491008344, 0.4173304848544873, -0.1077742908679465, -0.2051261102244072, 10.11646788760068, -4.018468279048103, 2.235357182250425, -1.335691325230134, 0.7816844990692287, -0.3978058743932584, -2.766567293417622, 1.147705062644219, -0.6081660636162877, 0.3371310953047183, -0.1728005122896667, 1.32141353548167, -0.4839960906235374, 0.2020150399888904, -0.07995113821347699, -0.7273234455699655, 0.2312947961357756, -0.06937656592621512, 0.4038323878204857, -0.1051000878300477, -0.1985123657306888, -3.816846429811038, 0.5298797295785694, -0.009732199922875499, -0.09680703252764682, 0.09749295953774897, -0.06442386621052215, 0.5160170466571529, -0.03624432258235347, -0.03812516178439593, 0.04049092162461374, -0.02728946229114463, -0.005016900750565136, -0.03849138523264176, 0.02835213843092036, -0.01432070351819999, -0.09746612734711482, 0.04048424823335519, -0.01430377916766527, 0.09677031036958382, -0.02712685787142598, -0.06358319386498805, 4.682657388119734, -1.397458672057309, 0.5585609002548714, -0.2319524407581511, 0.08320936954636544, -1.37999357419622, 0.3986360785894319, -0.1378597938662196, 0.04622770559299539, 0.5484523025081754, -0.1367942685684423, 0.03277649499423967, -0.2270093454790791, 0.04563645345633154, 0.08124036082553576, -1.056999978690047, 0.3212309608522965, -0.1163841245964488, 0.04063257332633002, 0.3176334470829792, -0.08749339518271555, 0.02498063760057493, -0.1143856554159274, 0.02477791880407275, 0.0398020989217055, 0.3643267734212706, -0.09540063031203613, 0.02400075303139106, -0.0944785495052155, 0.02055148855587061, 0.0236146515244838, -0.1389855831184922, 0.02925772464355415, 0.02902432963644153, 0.04690132022168388},
  {1.467261912007723, -0.1063257874187953, 0.2635725041100442, -2.627212304621564, -0.4879316167716198, 0.3993686884326388, -0.1817800093942953, -0.1274198933821071, 0.5038300204819474, -0.856429014091882, 0.3730030567688105, 0.1935579668016496, -0.1287336950473421, -0.07173875582172294, 0.5351223163279494, -1.817801932234378, 9.682320213320471, 9.005768326678313, 0.003466041916718868, 0.0005539090643588062, -0.0002399048124861525, -0.001222530769945406, -0.0004459368559677217, -0.02897449135310162, -0.1048509013446901, -3.212561101194933, 3.686935145824727, -3.726456608800706, 3.451060901050907, -2.809162461820542, 1.552166317702629, 1.778580285141649, -0.1114689086860713, -0.06322944537186025, -0.0279857116113136, -0.02642959570695607, -0.03236054021272805, -0.08788747495385506, -0.1692211484310019, -0.7095591015818982, -0.1887409166826296, 0.04001800343681418, 0.01898780864936538, 0.03343885368541838, 0.06573740798387125, 0.1201486472206769, -0.001724929131182273, 0.005647178208562205, 0.005571747357121589, 0.007833842585296742, 0.04223728633202449, 0.2618555214054819, -0.03096993869985741, -0.03178346705853794, -0.03507941449632095, -0.05163208336313932, -0.2909219092910562, 0.1413504982756288, 0.1359358108917801, 0.1262824715228586, 0.1036821519524313, -0.533575617187704, -0.4985780353763405, 0.4665341449016679, 2.426601839996135, -1.855492461826126, 6.203573890344202, 0.3488777762316081, 0.1764619278892881, 0.1105211485915307, 0.1192481185967832, 0.2312021714806931, 0.5210300667446369, -0.6019076295759508, -0.3288430493370914, -0.2694880926884052, -0.4021146426300629, -0.8786289435340658, 0.8674238962038374, 0.5476808709766589, 0.6171944868594071, 1.224761653145221, -1.147975959752527, -0.9168208858489589, -1.541541591551475, 1.438263071164993, 1.766731087942291, -1.57103126598067, 2.226052569669992, 0.2330472921135558, -0.1541673069612018, -0.1223162323453587, -0.2158604744485009, -0.4201196311897073, -3.884250758800436, 0.02977061314518708, 0.4105326053152457, 0.4679085002505861, 0.8748290343355796, 5.702049556466366, -0.7603217092204921, -1.067417356486141, -1.634465439073771, -7.825299348616022, 2.594877753555718, 3.284980074473778, 10.65118390108806, -9.361999165870285, -17.73226779257935, 0.07110044339780705, 0.01578492565611289, -0.006071435647808682, -0.00341935428936648, -0.009261378447838205, -0.01367069035386988, 0.04159809529248786, 0.006998261287099196, -0.004383645459266245, -0.004753804704215772, -0.01014808068976633, 0.02538719168978295, 0.005548517261749046, -0.004994165871625686, -0.004153293949102502, 0.02692170822081771, 0.0087916704656354, -0.007923064679008109, 0.05473953185475901, 0.0231262656464854, 0.1042411670308808, -0.3098484897504397, -0.02308664161739839, 0.03185105161256356, 0.0383619196083963, 0.07279137321223762, -0.1766239132331317, -0.00942397973116442, 0.03025325054700641, 0.04273676226072545, -0.1407928830174293, -0.01088678036538756, 0.04005615256539047, -0.215641507108131, -0.03503862732207012, -0.4450425190612938, 0.7647552364306058, -0.03171885790860764, -0.1363477588473198, -0.2118902341355396, 0.4859207116486579, -0.03805578784922108, -0.1565872631127219, 0.5472072767407961, -0.03390006137557636, 1.063606071074377, -1.588529042771921, 0.3177541199943096, 0.5973586150928064, -1.264104021897563, 0.3641120666901961, -2.104334129627285, 3.289942074397211, -1.788179206571137, 4.002217001701463, -8.958218806711118},
  {1.236915557699577, 0.2387311629123794, -0.1066691741827412, -2.616572049257954, 0.1949557630003261, -0.1312982520759909, -0.06746648119898233, 0.5287470157952627, -1.808897013665146, 9.706674170823039, 9.058766341597748, -0.4390257576414731, 0.3538389287374857, -0.1518889896359143, -0.1308513243960728, 0.4687297108729687, -0.7716337634295972, 0.3197228666634527, -0.09441186262600508, -0.0261061503683365, -0.0005266273776555356, -0.001131702113223532, -0.0002423054535383639, 0.0004994070119016082, 0.003070575525489465, -2.713056795333446, 3.123321472821972, -3.171010779141405, 2.95638472154393, -2.433111028727345, 1.377939935632982, 1.756230178482958, -0.6034905801263059, -0.1598134477707502, 0.03485089246207371, 0.01722277591218491, 0.03026433181977606, 0.06399648903770638, 0.1197126780225151, -0.08346950955634518, -0.04833206778212052, -0.02223396124802397, -0.02187196831508917, -0.02769191341327922, -0.07971440590930239, -0.1575523418425821, 0.2337026977427573, 0.03807959897778981, 0.007458707591111623, 0.005138121829998973, 0.005014811397332087, -0.001654713427081759, -0.2540585394937259, -0.04701869149356999, -0.0323068156465535, -0.0283729844764852, -0.02667944407008084, 0.07604380761349938, 0.1154380119916727, 0.12190003145488, 0.1226300624460584, 0.4474476319500508, -0.4480896376870339, -0.4637564096452382, -1.69122390089297, 2.110678859940092, 5.401509360942407, 1.898443993837329, 0.1953900344340982, -0.1358334596674179, -0.1107253915330142, -0.2054530627389395, -0.4182285149337249, -3.327778804188215, 0.03598643906039511, 0.3666194644432647, 0.4389851437159535, 0.8676831379696937, 4.919352931358395, -0.6859495092143461, -0.9842721190239727, -1.614922519784557, -6.829718150315267, 2.376696092830118, 3.226449349115401, 9.509299830898199, -9.16483511962138, -17.16931910373174, 0.2622270808662169, 0.1365891198536029, 0.08948020417702146, 0.1003388542343671, 0.2058742320763883, 0.4827010492539346, -0.4547306363657484, -0.258641683455532, -0.222319669538407, -0.3509282159288806, -0.808434658459977, 0.6605031887169828, 0.4391936449099112, 0.5264711433400131, 1.116298200575945, -0.8849258909799781, -0.7585826987599249, -1.385974223504162, 1.13473118431849, 1.552589089207536, -1.307873856084773, 0.05387368391383305, 0.03229899139205102, 0.02075211208346564, 0.02265622773980961, 0.04904458299972391, 0.09647302009378479, 0.01194787781551538, 0.005479154802228402, 0.004596680655871911, 0.007752655431903027, 0.02136997662787186, -0.004760153073077203, -0.003541280457572266, -0.004321270724851842, -0.007133268634501066, -0.002752902289322201, -0.004055269465621738, -0.003705295701773586, -0.007770707491721899, -0.008924036804097308, -0.01190792086914941, -0.2359625574207347, -0.1397328493825539, -0.1167586050710702, -0.1892370364731455, -0.4095656501777601, -0.01720324972123725, -0.007487666449926646, -0.009318313593313227, -0.03251915643209227, 0.02523752604572795, 0.02547788780639858, 0.03578237777173105, 0.03191521894077699, 0.03760868485740501, 0.06309537067853353, 0.5874445891630301, 0.3922654606999609, 0.4698971087509333, 0.9709386966373297, -0.02628525543607612, -0.03223657930985772, -0.02917130889527998, -0.1115947481225493, -0.1377639848785904, -0.1830795000935168, -1.237054123590565, -1.054949545054201, -1.899309683795213, 0.2595673354984585, 0.3195856403542512, 0.5133881983632015, 2.62927653059323, 3.54800480627509, -1.531965590184209, -7.652504298593974},
  {-0.06439053156207965, 0.1836093729269846, 0.1680323485552192, -1.714178434669936, -0.2982599965842353, 0.2154749513286402, -0.04073294295534802, -0.2014639440618931, 0.496629998539436, -0.7895125754856035, 0.6632112232293063, -0.3281771853433131, 0.2415049892742991, -0.05401318243748622, -0.2093906490228828, 0.5362517614508149, -0.873581234512498, 0.773879738514298, -0.009465770109756671, -0.004837017511231883, -0.002118127016136827, -0.001791914236265184, -0.002139888041270681, -0.004964883719965582, -0.009838191783042146, 0.1534395413745208, -0.2065904272998694, 0.2636704114216913, -0.3576679992255164, 0.6092635785759201, -5.664359588595775, 6.40383247985617, 0.01194986932290996, 0.009114967000633498, 0.01030550263908603, 0.01133056046634557, 0.03425151570723096, -0.009258319238739033, -0.1759178690005176, 0.01349884155790788, 0.01016601223124438, 0.01129016271141594, 0.01235336033972878, 0.0371989696710885, -0.01009890001942686, -0.1905597049568184, 0.02196840715810982, 0.009940753914256721, 0.00599048788433112, 0.00601637165790113, 0.01008164874567995, 0.02262142236099425, -0.01907321814659014, -0.009291973206732855, -0.007290409788923849, -0.009227175100445916, -0.01906604678138312, -0.008978031464725327, -0.004989513634207892, -0.005377753412016275, -0.0108584086270099, 0.07990684637011057, 0.05489119015712229, 0.08500709696748829, -0.2348292363956935, -0.2436947300587271, 0.6488067155519831, -0.04412196846295827, -0.04137222579979948, -0.04854305817964612, -0.1091698793405347, -0.09943026955884315, 0.5020616322246088, 0.1053319683009382, 0.1181175782952152, 0.2229811970784865, 0.3585978898028143, -0.7542491701162789, -0.2368344233290746, -0.3902800723065932, -0.8105521361090136, 0.8705317150164671, 0.6541968404701577, 1.589225111704579, -0.7499807810833313, -3.340323015871735, 0.1295644615689427, 2.170060644780239, -0.0499138425387831, -0.04591075517358744, -0.05321162203098902, -0.1190719320205465, -0.1079615505819632, 0.5456001255262111, 0.119300367001786, 0.1309827722657534, 0.2447598398619643, 0.391659253057913, -0.8237106816768933, -0.2689004651212621, -0.433294785434131, -0.8920455376156667, 0.957746851000571, 0.7457273845117592, 1.771195310540676, -0.8360763465604703, -3.838455692793362, 0.159571233670231, 2.490219805515468, -0.002283777377102259, -0.002354867118719247, -0.001867310260996915, -0.004300040428326902, -0.001139247096358352, 0.01497524351185165, -0.002396467580608241, -0.001926600986815878, -0.002950394739333866, -0.001693153775220856, 0.008207367650547767, -0.001934191161993138, -0.00300525030942418, -0.001084934661351093, 0.004713994340681052, -0.004482205734964249, -0.001742804173332895, 0.004748287372777781, -0.001202057627970538, 0.008471966529580547, 0.0157179489744851, 0.0142464744991062, 0.01277009248356482, 0.01983667478146038, 0.02054672964067627, -0.05821234544673416, 0.01303705130008801, 0.01625926472148425, 0.0150683414601272, -0.03040884631901351, 0.02055806600826988, 0.015332217219385, -0.02302679586113808, 0.02144312451726815, -0.03109374829135851, -0.06087380646101714, -0.04974260777358093, -0.06240696775901671, -0.08592258689173182, 0.1198107719599851, -0.06387264311886776, -0.06895547793788882, 0.06891160915029393, -0.08907602664038937, 0.06975728690477091, 0.1246453256615387, 0.1860315769475017, 0.2698730524446538, -0.1844792384489023, 0.2764820743110612, -0.1264793492790247, -0.1904471618853316, -0.887059741134377, 0.2007552735524176, 0.2047210253249182, 0.09597271106635091},
  {0.1572837655822154, -0.1360739852454816, -0.4903422671863414, -2.54474657843212, -0.6500897327549636, 0.9820121865744511, 0.4568436511127644, -2.120805727117786, 3.63579015626975, -4.736574370274886, 4.97522512213721, 0.1904780486168302, 0.09695563050131865, 0.03746262630219904, 0.03025134406387091, 0.03260950657592985, 0.07045375867762944, 0.1255591600410355, 0.236288799409037, -0.1848490319919371, 0.1065220733411293, -0.04214268809337401, 0.02012958133304198, -0.06292085956294746, 0.09997073306349059, 0.1140730403438728, 0.07326968267972044, -0.00202667161964446, 0.009011934110424252, -0.3218895172168277, 0.006236800947705051, 2.045472678433039, -0.4736515449462262, 0.8671095835229472, -1.572447068565227, 3.326185590961116, -14.23635425035899, -5.858707320533919, 2.016120010812507, -0.02480460396292244, -0.02482359007736188, -0.01733529576239391, -0.03138733187585824, 0.0167434502736941, 0.08112531225250739, -0.0195429567468111, -0.5138328976815795, 0.7136515846204554, -0.7566648793079217, 0.6211784836945152, -0.2812254813534933, -0.3277036477457312, -0.2292626808861333, 0.3404643160898222, -0.4149513391565975, 0.4271195767408793, -0.2568523182025053, -0.1227855540179826, 0.2349803936273645, -0.3728612699523089, 0.4879768138946934, -0.1142263731222693, 0.2830550606655853, -0.5540527916957227, -0.1776634021032679, 0.4983328284319544, -0.3469531131717417, -0.4318701902404927, 0.9044797825976706, -1.845369087991367, 4.055260180671871, 23.33633008413421, 1.057153099099451, -0.1707726299554025, 0.3893779212552884, -0.000669234005713752, -12.89159368989301, -7.553098756853547, -0.05350025509775225, -0.7724908136066099, 7.738293911818089, 9.817655821119484, 0.6993246735430588, -3.989269742439504, -9.934725674881518, 1.355668764166017, 8.468239055173855, -5.718914807756479, -0.01096864404187905, -0.001398059126453453, -0.001872936158641107, 0.03832262306867621, 0.02577996022376312, -0.2030094196811059, -0.001466986953158666, -0.001437758243930916, 0.02024598990684933, 0.02297563650228994, -0.101203490649877, -0.0008948738987316116, 0.01780797091333224, 0.0134489254886519, -0.05129838047581137, 0.02735627715483687, 0.01815879711631931, -0.04799523420555582, 0.01704844989907495, -0.07685726752027264, -0.1354386207005049, 0.1150070599396443, 0.09591446158710761, 0.1277188058793112, 0.04357377873923854, -0.3308258050243469, 0.09068136260801851, -0.3016572095924235, -0.3407195536262422, -0.2957066314346854, 0.733527267324832, -0.2081743001950683, 0.8481447344238736, 0.9707962900940472, -1.315015284579701, 0.3506734404331163, -3.025150234521248, 2.158677513553013, -0.4742260718832605, -3.740975439265702, 0.4802773074326064, 0.01087739931679967, 0.03855996462149875, 0.01609344513653821, -0.1104645668319854, -0.2756638674989577, 0.7561748054608131, -0.1202104480940393, 0.1539268204054279, 0.937825165600671, -1.502321728963449, 0.05179568633264924, -2.340412326322185, 2.316118041410222, 5.815667258865971, -3.058694121566168, 3.552625142030541, 0.01256126392966531, -0.06613628340343994, -0.1629438824296044, 0.3530701140871493, 0.1319814614575426, 0.5972140233203933, -0.7612161736688517, -1.927317443937333, 1.389826856828679, -2.541496534312018, -0.08490756769896551, -0.1423177582170511, 0.2375922942760525, 0.7007484159662911, -0.6807324085610964, 1.756631024457275, -0.1937704653263717, 0.2901320503832659, -1.074735637919867, 0.5191749745148498},
  {-1.171711616300232, 0.01923672644426947, -0.2481753161133747, -2.66733515163842, 0.1952981954755566, 0.0993564717903315, 0.03859119371740368, 0.03118991018657019, 0.03372882642785355, 0.07281345303770058, 0.1302584928133769, 0.1349878243431276, 0.09401359209380315, 0.01288117694254103, 0.03954601527197043, -0.3576279769240764, -0.07711650718171098, 2.261113381689992, -0.006168216350092775, -0.006126284501187935, -0.003782719093866599, -0.003536718847315884, -0.01610913728076026, 0.004575323543503079, 0.1784684481682378, -0.3505076423282681, 1.059000253139943, 0.1734119936503117, -1.82151186706767, 3.445972596197713, -4.718477047625503, 5.117533866088141, 0.3658341502848817, 0.004006071164943193, -0.2370471602585535, 0.2323423180685168, -0.06943829229228902, -0.1659585040685478, 0.3652983687681467, 3.78246878789115, -11.55752707163649, -8.752525822489142, 2.202216556302563, -0.8930468778188665, 0.3847696338217516, -0.1317389809840612, -0.01456385016297089, -0.004082062572109315, -0.005432772260109767, 0.04014757650270753, 0.0346861822714141, -0.2162384111758616, -0.004124612047148753, -0.004722040871992521, 0.02069228183425626, 0.0288318421277914, -0.1078603246201417, -0.004379316269477893, 0.01825457763265871, 0.01765914214315244, -0.05525528041283628, 0.02912447444022333, 0.02392024522559383, -0.05193141821363021, 0.02569527425690835, -0.08339190557335692, -0.1482765534731044, -0.3474683598927923, -0.2069165210227054, 0.5628292640046282, -0.7264967942078168, 0.7072479812912434, -0.5198533947810464, -0.183691231031039, 0.3877148608637464, -0.398998248843337, 0.3380145653672734, -0.2321601074782881, 0.4311263055290168, -0.357073325090473, 0.2332022487584447, -0.1246610881965551, -0.524919715759612, 0.2806872336375191, -0.116096757257143, 0.4923119133653372, -0.1805431125213036, -0.3529031146619077, -0.3058342603107442, 22.62742870045145, 6.250740318336858, -2.418610246643431, 1.119274813230166, -0.5192799895175824, -6.493167148768083, -13.61304432358703, -0.8810456595819913, 0.6684406508787045, -0.2494496910987314, 9.401989081061089, 8.71252463177918, -0.4797222641232782, -0.1695516894828682, -10.07302040453664, -4.761962252370264, 0.6738165116203199, 8.923537327200558, 1.760745209892904, -6.198456351559169, -1.192581099982285, -4.369443933513177, -1.082051268549273, 0.3388373818003964, -0.1104812545376178, 0.0371078993600727, 1.440302235696274, 1.509406898224633, 0.177973772675985, -0.08884622728700334, 0.02492647848495871, -0.8569128802349374, -0.4302237184987161, -0.03034205424359329, 0.02222031194144253, 0.2283740568692637, 0.02808746468248345, 0.0206912091114032, 0.2063683240216394, 0.04027428884234103, -0.3484164852933092, 3.09735407039816, 6.047081350296254, 0.3491320965460446, -0.1994145813259354, 0.0575407638949377, -2.939104560029765, -2.542490384642991, 0.08577316168024274, 0.03699442339318097, 2.324198140094667, 1.056570096114744, -0.1020906859548767, -1.549112833554709, -0.32359584017895, 0.7946468644468522, -2.424519131484911, -2.126229763741938, 0.06473432469212979, 0.03319120073177283, 1.395342835960313, 0.6808213249981779, -0.05702920013101904, -0.7872139710428192, -0.1924906431152523, 0.371991489272668, 1.765017413273337, 0.8168572603627384, -0.07668992099705929, -0.7065888355833959, -0.1715981932079399, 0.2522857055465114, -1.120545036400979, -0.2404371733695398, 0.3088210984320638, 0.5566224048060519},
  {2.679868467547337, 0.001180828426151865, -0.00118326982936614, -2.393806722749034, 0.1419842720642523, 0.10087306633453, 0.01705807812794983, 0.04339359407021573, -0.3396299590621943, -0.08197776895827849, 2.063807510109312, -0.763310350289775, 1.051495128978367, 0.4346715941026102, -2.073247186834085, 3.516259148082526, -4.530290994449297, 4.712529953172765, -0.00788366588289059, -0.02688601481296057, -0.01530703539495615, -0.005553153102738996, 0.00473272749252378, -0.003901706378939827, 0.00260700905657377, 0.03551995286341369, 0.01109062311276372, -0.001440613801306418, -0.005054877875766987, -0.01025548421441533, -0.03677162968170319, -0.08148052988844619, -2.293096782162927, 0.08377966220745943, 0.3726374934365122, -0.04566507335468054, -0.01688524145679379, -0.1032257463157398, -0.1416507075244019, -5.246892410075813, 4.999944723490326, -3.833532903291463, 2.216625604440694, -0.4290786000898319, -1.121569959783215, 0.7585959113050178, 1.043602877134813, 27.56180737936626, 7.4733890127476, -2.801667931416612, 1.244255874238706, -0.5613169531656975, -8.084796236528707, -15.27813007905465, -1.079155262655439, 0.7672428664172277, -0.2772765646977665, 10.3335769210934, 9.178073686538944, -0.4457093272495325, -0.1939558961382859, -10.30984349843529, -4.787595343138547, 0.6504338886085518, 8.685975132491746, 1.714632547746758, -5.81025972582422, -0.03530685619215518, 0.003819985461723436, 0.004916462966413177, -0.0002017335310654549, 0.0006137464610401351, 0.002025671241021376, -0.007601994714848017, 0.0005017783405366236, -0.0008226612733269632, 0.0007336204483152886, 0.0005369022036627445, 0.00559193205117377, -0.002766867374076745, -0.005217303787989016, 0.001696590860979163, 0.0116219935236952, -0.008329565721942796, -0.01489866946488204, 0.0365192447236187, -0.01229077069302975, 0.08687835138165712, -0.08779101452781811, 0.1060671936613073, -0.08803277074780533, 0.04146329995587787, 0.01288191238292668, 0.04732000365792027, -0.01479192626161399, 0.002820374674396612, 0.0233658857583168, -0.06371510879865121, 0.05555592519202748, 0.01184239752792716, -0.03826297075955409, 0.09927828888752532, -0.196626415905008, 0.02738068216057439, -0.1008859439734644, 0.2756039255864195, 0.07844351820206159, -0.2811906460883566, 0.2127370762922232, 6.416854718513649, -9.509617563817176, 11.15612988228852, -10.99962087568776, 8.3767175937522, -0.9691260579038226, -1.859507563685682, 5.159342763268663, -9.76579945143, 15.9222943546449, -27.41222579180064, -0.7120325089208905, 0.4965688955848011, 1.082034226558546, -7.401601743958426, 0.2019591801267658, -0.7870142322774198, 2.789618832853327, 0.2826462017349254, -1.241038937747858, 0.561157171511485, 0.11717478944392, -0.1909200149107273, 0.1990429124223005, -0.05515145587098878, -0.4732140642311627, -0.03428881065528281, 0.07918571694149781, -0.03146556779534211, -0.8565430985470356, -0.009799127372556716, 0.007752652715587226, -0.04902266489800534, -0.001807214617712638, 0.02839485570875485, -0.007971353995588848, 0.004111276687769169, 0.04558591684732084, -0.2224608191746422, 0.8712710230116321, 0.009119594198765998, -0.1047706942074721, 0.7153640327986891, 0.008893617120080407, -0.03004969307808718, -0.008652712403853199, -0.04065157298208454, 0.1913358599389429, -0.8077965578930125, 0.04674781834055344, -0.3513453589683073, 0.03586483103601217, -0.1099741453151531, 0.5804057524208058, 0.1150325156525682, -0.3109812050039786},
  {4.137161388500616, 0.3199032950895002, 0.2036718041642645, -0.2192540143777886, -0.6094032097047352, 1.057698467689601, -1.994369981177856, 5.164993673839265, 13.48201195626388, -2.363620960695022, 0.8115067269728669, -0.357707547721456, 0.03067929821224068, 0.1792594390502054, -0.1671223660343839, -0.02072421170103988, 0.1818772539172342, 0.1105776905612014, -0.3260910479259347, 0.06836350157282638, 0.02343917703990294, -0.005092439702176973, -0.006139159602770258, -0.01322392636690881, -0.02739337384836663, -6.745760749779389, 4.605214436395428, -1.900731337482481, -0.1250572613570012, 0.923097223006075, -0.3878551476523878, -0.3840734116208027, -4.815146361905196, 1.425417071341845, 0.42078151663715, -0.5188106894198237, 0.002327574744969619, -0.01076473301248375, 0.1138002731259561, -0.2432985601265849, -0.1302863138844139, -0.05848926607722685, -0.05142959532792546, -0.0615440864479708, -0.1458897431270786, -0.281844994891037, 0.4729154155069319, -0.1692624127213411, -0.02101450853009383, -0.02372046357514068, 0.05191612621379378, 0.09261292256835356, -0.02448846470947819, -0.1929878049619517, 0.2750305372441111, 0.03637076862418256, -0.2504082699975878, -0.6116519741625791, 1.15999186392813, -1.366989527494961, 0.3712171083039281, 0.9364795041727098, -2.434287791341262, 4.920371682955633, -0.5034151472227435, 3.045035839904715, -0.7968699598709471, 11.19714111837498, -6.945592396535867, 1.235927346912363, 1.214514653408974, -0.05412821793602389, -0.3060217733368471, -12.57133696377283, 12.60047985313874, -5.670797894944421, -1.275208157904142, 0.7385578072137219, 9.742101319988258, -15.35326377819018, 12.49590045910585, -0.9029681802992586, -4.517448804100034, 13.32248417026361, -23.75990420437705, -0.682093261008957, -4.984292825439324, 1.995043980809329, 0.5528086628670441, 0.2747853557427462, 0.1686869133888353, 0.17328627003095, 0.3014878701153279, 0.6366660435718591, -0.5833549838468357, -0.3319665923896721, -0.2602066401031531, -0.3561340231863298, -0.6660923774344067, 0.3909494807039015, 0.2794608304709076, 0.2923107806212384, 0.4404968645515444, -0.08767868568097326, -0.1181978868170081, -0.09643277465855973, -0.1674713891900322, -0.1800181106356884, 0.1063623933536401, 0.3862658306081558, 0.2006411016724031, 0.1206063123908325, 0.1236668851044431, 0.2200638527902616, 0.4430928755529063, -0.2024165555879268, -0.1330796785879602, -0.09951541412406757, -0.1426022954885097, -0.2282716336880584, -0.00968780879919622, 0.01058091197778052, 0.01122500278094665, -0.01244401555924529, 0.07248969907099242, 0.05785942249370529, 0.07955172071649122, 0.001397760626821745, 0.001475174224092499, 0.006984324723108042, -1.21303906065677, -0.6264710456450701, -0.4912540020133514, -0.6700615860845238, -1.381386223266609, 1.063459554764949, 0.6631207060497667, 0.6901256015860529, 1.18988265504114, -0.3349528931183904, -0.3003329482660415, -0.3626586524243026, -0.250611914263234, -0.2673019952174012, 0.001615584498360507, 1.895617674928426, 1.123627933445461, 1.168665032499392, 2.133903644988842, -2.533755053789605, -1.863810172368121, -2.790098577273593, 1.668643025973881, 1.768196388136017, 0.4750346265985026, -2.056791774071578, -1.535527124867547, -2.273999390357335, 4.356794497101695, 4.661718373405106, -5.966954495285793, 1.46637284171854, 1.568119901391342, -6.58791482967743, 0.1577952487856555},
  {3.113333461018503, 0.2005465117060295, 0.2334436563493288, -0.2087093505053184, -0.2537560426520134, 0.009701935173770384, 0.1407382680924881, -0.1238969085600419, -0.01839167508167735, 0.1301378486619555, 0.07607299494231241, -0.5994127722342959, 1.048458812360841, -1.987152308464229, 5.213246469981262, 13.54622793218879, -2.331307862912359, 0.7960774655287016, -0.01849518681913543, -0.009154361432448998, -0.004527996700398272, -0.002883923582507835, 0.016782215051959, 0.04828937814250538, -0.2359920173161004, -5.08415429553526, 3.478033218045222, -1.432796473005426, -0.1142488334533597, 0.7318225252604307, -0.2949075888181684, -0.3604546257173142, -0.1283847152571729, -0.07127845519812417, -0.0340596584583099, -0.03193816979564471, -0.04059480560839206, -0.1061095537800914, -0.2162099798613196, -3.668551215638531, 1.122908463052631, 0.3098742240886888, -0.4117611141761752, 0.001674819552196806, -0.003928366362768986, 0.1052972485452589, 0.06279222001283645, 0.0366133510904455, -0.01905501845955671, -0.01768480884447096, -0.1116082974540245, 0.3297110962492045, -0.1697146212277831, 0.02813438580318954, 0.2095181362782278, -0.1703488172772627, 0.01381163780004085, 0.2520359348816868, -0.9910960716489945, 0.8809766690522075, -0.4800201728525971, 3.341355302286775, -1.765997426370161, 0.696871488491154, 2.06448824653732, -0.3538594504508905, -0.544774139072656, 0.2929122177082462, 0.1531379470493656, 0.1009737343154989, 0.1107163920610193, 0.2118265529693388, 0.4824054493253909, -0.3106460345956895, -0.1889233401214689, -0.1601359225961898, -0.2413012209099945, -0.4952066410048866, 0.2092245945460622, 0.1622775534512559, 0.1898730826393516, 0.3171284735252553, -0.04479725153513211, -0.07037763016881429, -0.0612246751691438, -0.09936803091425317, -0.1281687199138155, 0.06045107055049978, 8.557248392224187, -5.44116011555554, 1.042239124779445, 0.9738898380006613, -0.05277845937869159, -0.2936825033229532, -9.656833239252565, 9.942271190519193, -4.695553536387924, -1.031104855187462, 0.6999907113349519, 7.532687076935813, -12.29545471748317, 10.64829189582232, -0.9420964321425406, -3.500633093804951, 10.97883506171608, -22.61062982862325, -0.6491186048981291, -4.287965414895793, 1.763286325909359, 0.2069520795686159, -0.1114587365985961, -0.003828031645279182, 0.04127584328959878, 0.001082223612133934, 0.004783596178025867, 0.1126485547970009, -0.07742229935405075, 0.00669498621841168, 0.03694921992347157, 0.00134592847489205, 0.07289932922801111, -0.06251802401390555, 0.008377868131701551, 0.05767323701267003, 0.07944228320728587, -0.09890192981867378, -0.009645418260765719, 0.1559229857639809, -0.1715346455492635, 0.3371461163409613, -0.6539864692025111, 0.5894382707937432, -0.1961490548807329, -0.1487663687514574, -0.0007809951055264137, -0.3609686865227134, 0.3979543622587201, -0.1939898311305503, -0.1878346683904173, -0.3055725627472076, 0.4580684548881251, -0.2624922440866913, -0.45662045390062, 0.8807495746614724, -1.03696485029137, 1.032809567067331, -1.42964588758478, 1.003746751422916, 0.3133148177184672, 0.6668975885292742, -1.175593818901875, 1.240604654631125, 0.7646866288226774, -2.017633162258186, 1.56997292112868, -1.139071697551512, 2.547239924338602, -3.939584159928624, -0.9536589536228216, 3.248412025386383, -1.622619527077039, 0.8352969028803525, -4.248657818591667, 1.054963401136823, 0.1442849451932885},
  {-0.3573234768436295, 0.05174001974605028, 0.06903288795187446, -0.05916524930024965, 0.01294672316471933, -0.1822645331368958, 0.2471150289554202, -0.1708907611795657, -0.00169513858812054, 0.1341889019940201, 0.07208314716799862, 0.01275632796821717, -0.1413851514895351, 0.1877941282188486, -0.1267876982103725, -0.003467278821482717, 0.09645601826379091, 0.04997581806500691, -0.002413388865943217, -0.001171808724595473, -0.0005635049302858985, -0.0004617798530280683, -0.0005477662787305038, -0.00111053907084198, -0.00223153478734935, 0.8906563691123393, -1.316264649471123, 2.029947890926644, -5.279755449712325, 4.088836987028825, -0.2083639270533101, 0.1413588622041965, 0.05728553605629737, 0.03816553018545708, 0.03403791148698998, -0.05621631787325281, -0.050859995286148, 0.1953530933547927, -0.2175608029901756, 0.03942548870751283, 0.02685813150132547, 0.02480680779422798, -0.04257919489934484, -0.03779924282829007, 0.1484595747644436, -0.1656606047917692, -0.002902661790809205, -0.001061566237419614, -0.0006588194633456226, -0.0006382058355431652, -0.0009558881576230512, -0.002458629232442751, 0.01796007850799776, 0.008386646788396559, 0.006535680450195321, 0.007985056107580905, 0.01614174834336047, -0.0309907880572448, -0.01798511367863714, -0.01750361470014587, -0.0283532197184311, 0.0295949353472149, 0.02313420421523924, 0.02766320560417822, -0.00570895646498974, -0.005821636523952845, -0.02944432363421698, -0.2155006741397339, -0.1808194678905657, 0.01465760283819741, 0.422675737052145, -0.5841517519118883, 0.3006836802861257, 0.574781083674447, 0.3741695884138668, -0.9551569668536951, 0.6227247947237782, 0.03141892118248108, -1.580629809273549, 1.230538722964069, -0.07988557773134168, -0.5044275919863919, -0.5463934817241518, -0.9528213819530207, 0.7746445692112862, 2.079934916724382, -0.5208913994669998, -0.4500022911277199, -0.1476226587752526, -0.1286579365131107, 0.01312286893592611, 0.3149859288196101, -0.4407084334640591, 0.2259839281359992, 0.3923663478054157, 0.2632946149159963, -0.703103410035114, 0.4634979816155491, 0.02882498526986211, -1.068934390972458, 0.8863012808511642, -0.05407102902147926, -0.3825634551045664, -0.3704957650324302, -0.6924522012245793, 0.5727120871118135, 1.408485894231295, -0.368609950489075, -0.3102413604250714, -0.005749513996892632, -0.005335088172476139, 0.004997680247362271, 0.00817445603648154, -0.01714461098682444, 0.01263177142472414, -0.0051761866580137, 0.002592146879893406, 0.00652599351254161, -0.009537793480865647, 0.005845482822866148, 0.004632815959162203, 0.006306005682584394, -0.00715726098346681, 0.003595805216084265, 0.007560846059279237, -0.009098737604348345, 0.003531063061509886, -0.0156396823289598, 0.005523353790696885, 0.01148560392750733, 0.03834335703795849, 0.004031015823132521, -0.06219941549230117, 0.0613488724861729, -0.02149438936941214, 0.004177798170882247, -0.04590968020042592, 0.03415960329862341, -0.01012999781868016, -0.05807012575347887, 0.03333368849265685, -0.007973521956357746, 0.05647183636744171, -0.009776597745302183, -0.01980834848123615, -0.1038869332432755, 0.1816223455044311, -0.08315821919118747, -0.007991554809052379, 0.1729176655389797, -0.05402969837763302, -0.003535950942801126, -0.07770529460355438, -0.003358127735032822, -0.006841991358583687, -0.3736089194233697, 0.004464767999244923, 0.07854347164071535, 0.004815094730690682, 0.0499576570242414, 0.07246515231818734, 0.3255010540590911, -0.1583561251002844, -0.1502230584503137, 0.154016348001786},
  {0.2940897799989514, 0.3408229571510751, -0.2907024439275404, -4.064342564178538, 0.2999013129836766, 0.1525752906647775, 0.06313386806285523, 0.05211942083453124, 0.05874962418358811, 0.1300566431271572, 0.2435468570720711, -0.1160966992860645, -0.07762821404856304, -0.6527915844458374, 0.5826831542909997, 0.8371628572534411, -3.444298213068425, 6.065328244170526, -0.02199548603374097, -0.01191858847690784, 0.01749950402061244, 0.0100002807199673, 0.02516660855947615, -0.1730507264839738, 0.3842985516531483, -0.3283195818846055, -0.1568338360715077, -0.22203933508441, 0.6668817659566006, -0.04058886427320364, -2.213617794331388, 5.32072818717419, 0.01473435937096, 0.02579924813736733, 0.08920795969450493, -0.00649193985951678, -0.1364444760502622, 0.1065258835945981, 0.1972600314158048, -0.5592864811110753, 0.4675499440797667, 0.2746552299511883, -13.96786775846999, -2.355376458470451, 1.344450579076944, -0.8258553482470449, 0.03210854758302633, 0.1522123812048662, -0.04839579899573807, -0.2462707429970216, 0.5378771342446421, -0.6122648164979114, 0.1406727602471607, 0.001614775545713998, -0.1783432567031852, 0.292438290983538, -0.2878733369820923, -0.03949627675573793, -0.1678472558007177, 0.2080638243179188, -0.1616386725463847, -0.2138674832313998, 0.2657618936196927, -0.1558102471115038, 0.4512919254259648, -0.2530308935942558, -0.5036850469766881, 0.03956652430222213, 0.05596744046028453, -0.1005253154982839, -0.07168551250637388, 0.3646384221049855, -0.5357806425970049, 0.0512342127617602, -0.05866177129955701, -0.06917594380455083, 0.2085723098426029, -0.2560793466495135, -0.08722399574548938, -0.06371925847298091, 0.1449346460311984, -0.1421997675594529, -0.06042592348977426, 0.1879200649965571, -0.1370079512848642, 0.3017998925566037, -0.2242070630181354, -0.4384678382593523, 1.135602185399033, -3.164803716339883, 9.826142364146092, 20.71315667610961, -1.993761856115072, 0.3087804909578357, 0.983443646722554, -1.529658025091934, -15.58549581428516, -7.65093583158501, 1.67263294368373, -0.7548240445564076, 9.323273585267641, 13.38002599299871, 1.390596178910019, -3.270843244972823, -13.60826737500453, -6.660142471034918, 8.79049397922349, 11.02496672518628, -11.32554820513598, -0.08810114668047211, 0.6861941441905954, -4.320272713128593, -4.006662958394226, 0.1847393013312343, 0.0932110254431243, -0.3236716981009495, 1.260727257741392, 2.604816793563318, 0.7699043323583045, -0.1187877151780569, -0.2641723471933738, -1.478561069371227, -0.8801817358123192, -0.05427722590724905, 0.6260296342703623, 0.6294073073125335, 0.03570886012942335, -0.3193141220643618, 0.153186350451531, -0.3148034958526413, -0.3534503332761296, 0.8524830780214154, 7.926892804865744, 3.874171240276787, -0.638891938333536, 0.09503115990055218, -3.054737339569676, -4.295936310013866, -0.6057784714813949, 0.8888238905634391, 3.222934604730154, 1.667771646311427, -1.619336868791174, -2.004093969596123, 1.509361080755411, 0.08567074302920316, -2.770986938304874, -3.915354463365653, -0.5691931633364696, 0.6386978569556307, 2.06815619030456, 1.136864797441842, -0.8891030238349511, -1.081186200546509, 0.7111315623999021, 0.7688284858346226, 2.801536055164744, 1.465683846776615, -0.839244350070674, -1.023859205770613, 0.5137131541997072, -1.366603210528184, -1.702959490250164, 0.6466782468913718, 1.253959231808647},
  {0.8734799575774899, -0.3135800193741968, 0.1109608417514394, -4.082897199250969, -0.3304162504349203, -0.1694753610457963, -0.2827299277189086, 0.682127607168221, 0.06580411770901656, -2.403087959668754, 5.462761997881647, 0.3007277995664117, 0.152982692539229, 0.06333485328539197, 0.05228812328416072, 0.05895529603360374, 0.1304817972769645, 0.2444262822215721, 0.3693665837435416, -0.1239505018682617, -0.005495594229042589, 0.01121139100359568, 0.01350487009972686, 0.01018474383749702, 0.01265079258185964, -0.1800043033864187, -0.1239490070517268, -0.5899637998881504, 0.6297574820995082, 0.6730473814529505, -3.256020539202532, 5.978264227157404, -2.190167681092364, 3.48290934205045, -6.884098140921863, -11.50680010052279, 1.49701397134125, -0.2667573987080183, -0.07758171984666017, -0.1071104450885118, -0.07233315547975762, 0.09492123536189814, 0.06954040183207012, -0.1759784564490663, 0.05500138511103551, 0.2801270371306557, -0.5465512706799026, 0.3853447901555225, -0.08920040662497473, -0.09923321876634232, 0.06810530786395812, 0.04419034079172, -0.2610256109015846, 0.2198181876212666, -0.08174678580752512, -0.05488693581817041, 0.06378036474127292, -0.1454092709223604, 0.1539243945626372, -0.07659951109730016, -0.0859284735547881, -0.1402673880582029, 0.1995863447273394, -0.07911912259662562, -0.2293899866652147, 0.3241168090248991, -0.4501301070453341, 0.5824185539695964, -2.630727007714077, 19.63114576491149, 11.5062535734898, -3.343970677179259, 1.149473774446697, 1.684101355775308, -6.658256549915201, -15.95520255317487, -2.303712230795065, 1.151392342737372, 0.9413282907240521, 12.92717032198403, 10.06710321702995, -0.5476256678553916, -6.129716170400456, -13.7860097750997, -3.765119518564525, 10.76093037843775, 9.205840591826684, -11.40820558402929, 0.04275446887641253, 0.1417525507523687, -0.06180926119329087, -0.2205497818252326, 0.5168289322301415, -0.6048416484837572, 0.129702447318424, -0.01198888753367468, -0.1614025292525802, 0.2815631454586527, -0.2846091032945126, -0.05357542605824798, -0.1505208699450743, 0.1992530565066954, -0.1594918270144224, -0.1863536458545166, 0.2544787387877016, -0.1536266026857726, 0.4285333295080133, -0.2495932190996424, -0.4955750733096943, 0.4578927503839996, -0.09776990231260414, -0.6175777265801884, 0.6885276480054127, -0.1674080972636451, -0.4165038462484564, -0.672137127431927, 2.031627109845417, -1.442365688376033, 0.4090044436906161, 0.1887125900727583, -5.448634905656775, 2.134937226769224, -0.5506187610196731, 0.01564705161936465, -2.078950269497458, 0.2713673858351381, -0.002107446063381369, 0.4541970063200473, -0.1119320304735892, -0.07189871673727269, -0.6435897277169478, -0.4839836408811843, 1.567858979362559, -1.966936174496564, 1.516853417786967, 3.428239251178061, -4.177028533841622, 3.253599174306225, -1.675284053987656, 8.088848258352234, -3.243505652927948, 0.9812892465196658, 1.182580692375289, 0.03437940077257998, -0.4119563806709869, -0.4427818988225181, 1.066813504605751, -1.060843859546614, 0.7147742426050315, -3.791055939374009, 2.088954543020857, -0.9206792999531171, -2.967734167010501, 0.7063922953717316, 0.02308935687964868, 1.359722692732531, -1.003102294119998, 0.5166879156183555, 2.833889628421583, -0.8714251015016324, 0.8666556399115304, -1.662994339755501, 0.6504234200248612, -1.426465464891022, 1.261951849458352},
  {2.928656921906344, -0.0006670077675924722, 0.004536381599626685, -3.834259428211452, -0.09943602254096871, -0.06845122020974399, -0.6673773637614526, 0.5755525952567755, 0.818206270360932, -3.309766424362018, 5.7629821242992, -0.3397002769593297, -0.1772607540908554, -0.2937848528294401, 0.6741738749724204, 0.07041800238472369, -2.306788666412336, 5.171711023214931, 0.007562606223207889, -0.01150164700841806, 0.02652858467253233, 0.04383880595519711, 0.04269282743962087, -0.0008114647461464097, -0.002015220163902837, 0.1512852211641173, 0.07085980680444443, 0.02434316088171983, 0.01585166149902959, 0.01261790048042627, 0.009457927363408803, -0.003762310973298778, -4.467134728316818, 2.636515406334783, -0.6971314693005268, -0.4498573274262685, 0.5709897433632188, 0.06061867879608766, 0.087221101317579, -4.011456216675845, 1.846114921150082, -0.08616602365483107, -0.5461019997979812, 0.2558203828494658, 0.1714824233855258, 0.3333050548987133, 1.203089539128549, -3.683816306815978, 13.06532397182274, 23.71835779004619, -2.131354893903106, 0.2387919326108758, 1.238842597460443, -2.515285709330953, -17.64387228883977, -8.256933984934637, 1.766549876472742, -0.5469355707906135, 10.5198719285722, 14.10110521719346, 1.434851828798719, -3.783731769407151, -14.14262313714323, -6.69956714375553, 9.070867115111787, 10.92220430856694, -11.09351603251541, -0.3011957234406797, 0.2538935235753937, -0.106937553484705, -0.0251860010600298, 0.05618003780903057, 0.007586672026455149, -0.1254158337304228, 0.1169675832843346, -0.06352273527089254, -0.001254905956492333, 0.02382625219404885, -0.05566198143063931, 0.06190537832651419, -0.03446827151831885, -0.001269286606502113, -0.04005284996485718, 0.04413129523951009, -0.01583358113913784, -0.0305651503489487, 0.01377868453105235, -0.001670307084046542, -0.2679856529745767, 0.180730393201635, -0.03645038047896686, -0.04413351988516303, 0.02402159285244423, 0.01110482332871881, -0.1135541469264989, 0.0878681825715615, -0.02918372256504861, -0.0163591422579944, 0.01190653713451055, -0.04982725481219806, 0.04565672800096301, -0.01480310602723429, -0.007394643244931587, -0.0360520037685399, 0.03250757811159573, -0.007677552787921349, -0.02733795287232164, 0.01073787736469872, -0.001774542355633623, 8.743738013868565, -7.341979542921865, 3.202743086250976, 0.413526435374666, -1.141278845289066, -1.199193382649675, -8.823962409172989, 11.7385985958745, -9.106082302840973, 2.407510823645223, 3.684548320199762, 5.615266962108365, -12.15636347330077, 16.00921772442242, -13.31058584812493, -1.320387912533709, 7.605283236261692, -24.04206977982704, -1.569619007908327, 2.04365167867529, -0.2133045477275972, 0.7328067208583458, -0.7697449583841793, 0.411436255705349, 0.02630461604191953, -0.1090195305490708, -0.9269458755685563, 1.430872147434018, -1.241945630879876, 0.3042973159682991, 0.7102486687250545, -1.673740357973428, 2.184979206150568, -0.206870483028896, 1.013143966441371, -0.1700955202527573, 0.2883358907810295, -0.3300253803468079, 0.2011297565193573, -0.004012700442597193, -0.3887670389192248, 0.6185841463454198, -0.4701047319306266, 0.3274379302032724, -0.6130336099383218, -0.1013266922260487, 0.1564446645253585, -0.1961422802947206, 0.09076791086248763, -0.2333564772838428, 0.2744816697151545, 0.1469122408826981, 0.114241497794428, -0.08179036842258933, -0.09603265614411978, 0.03190427397425061},
  {0.8815418166279185, -0.2180392282144985, -0.05505741209286208, -3.503531326327539, -0.08216365648007283, -0.04304735655179583, -0.02512587580416208, -0.0004286545578805111, -0.008513464802389665, 0.4309005803735281, 1.37237971522624, 0.01333881681512948, 0.01518826574607949, 0.008572210567026889, 0.02911790711671843, 0.04334799671582322, 0.4105866953668372, 1.123180893700527, 0.09785286633690998, 0.03111766506390176, -0.001848206404102351, 0.0009076558798890531, -0.0009485515766718958, 0.01393444107285287, 0.03374182604477415, -1.830139998075523, -0.5619597401009534, 3.23070313581468, -5.375975835951412, 6.897194900052163, -7.672240314987342, 7.274600600800806, -0.9259903855154137, -2.073834232376583, 1.124242776158577, -0.7323027055426894, 0.4859904080521475, -0.3098152112038117, 0.1764309613060586, -0.1934999795671068, -0.211316254238187, 0.5101433181879266, -0.5914592971810519, 0.6079576983682582, -0.577372311964413, 0.4879930795264736, -0.01099774804539119, -0.003179991342715423, 0.001817535529589505, 0.001406268814654588, 0.01462176783993417, 0.03868274059070118, -0.008990511721691009, -0.003286911928691096, 0.001230494225819128, 0.006487951770638703, 0.02591959928573, -0.0197081686091201, -0.006063207986282905, 0.004172464512836233, 0.004517214036517622, -0.0252046468794355, -0.0350033431502124, 0.00981555896042186, -0.1939848119110873, -0.1572496551946094, -0.5804683775439644, 7.23918786929926, 2.133676668754903, -1.212773390957828, 0.7719417229317611, -0.4871604379086213, 0.2623155425360321, -9.673088330562161, -0.5804169243262349, 0.4735300104250462, -0.2563828880603756, 0.1371215137236656, 9.628818602661449, -0.2517857447889305, -0.1671106830262846, 0.06227363425716477, -8.397710690386912, 0.655420057803817, 0.04456227267075741, 6.467734554362448, -0.718775070314692, -4.052185620980436, 5.149355792471303, -0.6825610701659371, 0.3157802750981462, -0.1813238120746372, 0.1010515890828557, -0.05129758551668313, -7.643770592391823, 0.9587466722778767, -0.289812650182069, 0.1255906864260863, -0.0465512309693864, 7.758153252908317, -1.084221454910714, 0.2230196140459884, -0.07130446421830716, -6.820466919450555, 1.033160014608347, -0.1332753965936029, 5.274934077889766, -0.816583579037543, -3.313045262453349, -17.36544325456344, -2.06570614471299, 1.310603003271024, -0.8811871234772971, 0.5698957289790257, -0.314550090712071, -4.951570999164137, 0.0857357678789657, -0.02694357462485497, 0.05428860193622273, -0.0537176176624745, 1.741710860202814, -0.07678961385577321, -0.00939892428846862, 0.003786455647840837, -0.7747205714233939, 0.058953091669916, 0.001098559575804044, 0.355410136933081, -0.03477645089011873, -0.1425279877194338, 29.76627466178508, -1.776107255352792, 0.4509045431491847, -0.1614082501043551, 0.05063762329850533, 2.46843171729562, -0.1345245700408753, 6.159123129199084e-06, 0.00582338440678623, -1.138693726093326, 0.1031818405520157, -0.009440057388550287, 0.4832399115638781, -0.04645692449298695, -0.185740237122417, -16.2800706892282, 1.466010256553399, -0.2643078485813037, 0.07055006565742801, -0.08641223837997231, -0.02558777229925257, 0.01252588560398357, 0.2685165275656301, -0.02499004759761345, -0.09053443975637696, 9.642985452508594, -1.006339488870257, 0.1136409230123972, -0.4016763649257972, 0.05739413948548227, -0.05397071260123383, -5.300465333180235, 0.5612219297696984, 0.3617766656058138, 2.363793338462277},
  {-0.6161932086578391, 0.1182271398740074, -0.09436847120225719, -3.426002674941556, 0.01038881889593439, 0.01330239221172318, 0.007557401219670042, 0.02797986942256227, 0.04167823765564228, 0.4033574455011236, 1.102764776617227, -1.849655135288761, -0.7511737469189445, 3.41977817274653, -5.492563226366244, 6.919936499397091, -7.606368766660056, 7.151291990936394, 1.136551631613083, 0.2904986258877373, 0.1296198263957237, -0.2156107513845817, 0.2454471471036753, -0.242610551916768, 0.20986800867356, -0.06703815250069985, -0.03337080622397566, -0.01854329288819897, 0.005635998990481842, 0.004331971593146859, 0.4212237925285711, 1.288226093506136, 0.2624597361061465, 0.100086262008786, 0.007145776425908825, 0.006975206117164855, 0.0003256165302951316, 0.01553447316231812, 0.04104990342365357, 1.464820144410132, -1.909202970157432, 2.292016665683999, -2.701161953035858, 3.22748163522103, -4.287653527512943, 0.4357986079893544, 5.830505548442646, -0.6300752925367549, 0.2794450553819244, -0.1555564274011101, 0.08401114012891162, -0.04176093556535467, -8.020403227132013, 0.9418722254594936, -0.2721061221092551, 0.1148550094108442, -0.0409637790308974, 7.930261706631613, -1.073445999668142, 0.2132344646354871, -0.06724161713333587, -6.863506387514894, 1.021419587562151, -0.1280838612679547, 5.250578204080668, -0.8047570511344825, -3.271218429943327, 0.03060474006067731, 0.0114841155902673, 0.001000349508386486, 0.001259565840068213, -0.002769888985320012, -0.009086438117879731, 0.01971979088121094, 0.004284467786869947, 0.0006965762520284707, -0.003412652333206134, -0.007583643094354092, 0.0001198496609573842, 0.001574945204548653, -0.006064616724882041, -0.01826224136316577, 0.002295124125898827, -0.03631720857212783, -0.02327345699123626, -0.157154493792229, -0.1832406135616084, -0.5467789052815307, 0.2122086409489192, -0.3909832198380344, 0.6107175413399982, -0.9374458313047545, 1.548514563378427, 7.598786722111622, 0.1046804973729715, -0.1849108657626599, 0.3161932691185518, -0.2023473060231596, -9.648043536110544, 0.03531316175723907, -0.07966024510087696, -0.4725827769010714, 9.390134671561473, 0.002597835416447881, 0.757387624772494, -8.072536139891756, -0.7418485924687915, 6.153176442176989, -3.825113488633647, -0.9103912920320592, 1.843729593104748, -3.33629048913922, 6.345294706932445, -16.81440302917887, -10.679678169389, -0.2283621566682661, 0.3515188525445263, -0.4840751326997295, 0.6349379659913624, -0.8850729865085235, -0.02745901428635984, 0.05552968197052791, -0.1093518013438055, 0.5271338435174082, -0.01596947094765475, 0.0543871875842761, -0.3630758981703559, -0.02988946140394694, 0.2371423262219088, -0.1325970269362017, -0.1461289465591749, 0.3705492952143747, -0.838327694378503, 1.529921165414222, 29.76455695191781, -0.03538623270417761, 0.07468487800250143, -0.06749430356200456, -1.686157291338197, -0.006464250854769245, -0.007547120502375014, 0.4023786230734297, 0.006614011551306333, -0.1391167073287547, 0.04184284543180541, -0.06101077247564902, 0.161474540903067, 0.2572139880035285, -15.94421289970505, -0.01460646257657051, -0.05432965260117115, 1.403132872989099, 0.01430246057041572, -0.2432839841481233, 0.06373963924101567, -0.0192150124444596, -0.5209579045190914, 9.309609568883211, 0.06685366013994093, -0.959628834288703, 0.1052444769236766, 0.3895490844564745, -5.063768700782311, 0.532545311778977, 2.240124389608987},
  {-1.100826802985458, -0.04442517546218477, 0.06895513731968161, -3.420801355425533, -1.86381310774662, -0.7486345913106738, 3.41830923170054, -5.48906575020531, 6.913609794814635, -7.597532223403611, 7.141495238782494, -0.08321618230086104, -0.04397632064852534, -0.02572350303364408, -0.001270135193781319, -0.009783106721696576, 0.4225231980680368, 1.345562610144211, 0.1102126691237657, -0.144719535478587, 0.1719281287088956, -0.1839706146322521, 0.1571490989052668, 0.4182459357214576, 1.099886026425299, 0.03433561471938064, 0.02785298406353471, 0.01570958808438297, 0.03469061355423784, 0.05214187613434261, 0.3944759807645008, 1.039777134281981, 2.477643190835892, -2.97041767464467, 3.190119127214671, -3.218763060291733, 2.99667269439712, -1.931970235858424, 0.7270781785371542, 0.5006731028336279, 0.1569308115269792, -0.01322866820978437, -0.003860345263145869, -0.01898258378293182, 0.01617711747859521, 0.08850766613365452, 0.2675861769687861, -0.5016463396882989, 0.8057040595747992, -1.291418614245991, 2.362535176522411, 8.115053759355366, 0.141044283129794, -0.2672166251888704, 0.5020386798483134, -0.6493924763671243, -10.14076409900129, 0.06551728974773512, -0.1786627052675125, -0.2263377082268145, 9.835986366106308, 0.04932520969247259, 0.6404950152644895, -8.443658358090513, -0.7058407102226893, 6.431130834697777, -3.996069898034284, -0.1187948304857455, 0.2238616077409699, -0.3714628270855463, 0.5983000775150579, -1.114781140321761, 5.365094872084716, -0.08556464168612282, 0.2036924651951223, -0.4359461438192723, 1.221818353293597, -7.534813948594708, -0.09822215936499275, 0.2961862833076246, -1.22248186141982, 7.471691410240919, -0.1650397191563043, 1.083690335587805, -6.471744335788294, -0.814560064783361, 4.951800799286961, -3.085009063953104, -0.02342408919720962, -0.006737516469551012, 0.002240121979177139, 0.001700584010059406, 0.01493680295288159, 0.03731334275958055, -0.01739772183512212, -0.005367158506554308, 0.001612931957733023, 0.00653356131290464, 0.02519641403499397, -0.02474692615850679, -0.007886038694332874, 0.004402189878821065, 0.004621116244006021, -0.03185487651539394, -0.03527485997025847, 0.009842058362900905, -0.1896579969233881, -0.1465206399985668, -0.5393564705064989, -1.628925219119517, -0.2664476223390887, 0.05241781159757906, 0.05869946739616948, 0.0137399613991579, -0.3038921640005443, 3.00086145383018, 0.2233895433227512, -0.1804906283385441, -0.1156791316585493, 0.5977960537897692, -4.773727481638794, 0.0928198437740506, 0.412007377342904, -1.045043192527998, 7.460894892544518, -1.022047443896181, 1.871318676886575, -13.55945232454111, -4.470435036751834, -13.02223174526436, 0.1079125433144828, 0.01493375166649473, -0.01222462233767049, -0.04852258715145751, -0.1806670837301607, -0.3121038092309023, -0.01088972967758273, 0.1138739563102536, 0.4732197804484056, 0.799667237676603, -0.1403356880506816, -1.126768787623963, -2.614103816843001, 2.459931249893346, 29.41441733584792, 0.1073893478369351, 0.01867379347335613, -0.02668688918694299, -0.08868851985405145, -0.3777364434102493, -0.03440329463045896, 0.2659701116166593, 1.748505225673953, -0.1019490975991612, -15.74840540465982, 0.1470427032781976, 0.06165219542181711, -0.05403347437721016, -1.091283045251954, -0.374492237578669, 9.191315483206287, 0.573454060552926, 0.3382054706800166, -4.997643248315191, 2.210219050043146},
